{"learner":{"attributes":{"scikit_learn":"{\"_estimator_type\": \"regressor\"}"},"feature_names":["pickup_longitude","pickup_latitude","dropoff_longitude","dropoff_latitude"],"feature_types":["float","float","float","float"],"gradient_booster":{"model":{"gbtree_model_param":{"num_parallel_tree":"1","num_trees":"300"},"iteration_indptr":[0,1,2,3,4,5,6,7,8,9,10,11,12,13,14,15,16,17,18,19,20,21,22,23,24,25,26,27,28,29,30,31,32,33,34,35,36,37,38,39,40,41,42,43,44,45,46,47,48,49,50,51,52,53,54,55,56,57,58,59,60,61,62,63,64,65,66,67,68,69,70,71,72,73,74,75,76,77,78,79,80,81,82,83,84,85,86,87,88,89,90,91,92,93,94,95,96,97,98,99,100,101,102,103,104,105,106,107,108,109,110,111,112,113,114,115,116,117,118,119,120,121,122,123,124,125,126,127,128,129,130,131,132,133,134,135,136,137,138,139,140,141,142,143,144,145,146,147,148,149,150,151,152,153,154,155,156,157,158,159,160,161,162,163,164,165,166,167,168,169,170,171,172,173,174,175,176,177,178,179,180,181,182,183,184,185,186,187,188,189,190,191,192,193,194,195,196,197,198,199,200,201,202,203,204,205,206,207,208,209,210,211,212,213,214,215,216,217,218,219,220,221,222,223,224,225,226,227,228,229,230,231,232,233,234,235,236,237,238,239,240,241,242,243,244,245,246,247,248,249,250,251,252,253,254,255,256,257,258,259,260,261,262,263,264,265,266,267,268,269,270,271,272,273,274,275,276,277,278,279,280,281,282,283,284,285,286,287,288,289,290,291,292,293,294,295,296,297,298,299,300],"tree_info":[0,0,0,0,0,0,0,0,0,0,0,0,0,0,0,0,0,0,0,0,0,0,0,0,0,0,0,0,0,0,0,0,0,0,0,0,0,0,0,0,0,0,0,0,0,0,0,0,0,0,0,0,0,0,0,0,0,0,0,0,0,0,0,0,0,0,0,0,0,0,0,0,0,0,0,0,0,0,0,0,0,0,0,0,0,0,0,0,0,0,0,0,0,0,0,0,0,0,0,0,0,0,0,0,0,0,0,0,0,0,0,0,0,0,0,0,0,0,0,0,0,0,0,0,0,0,0,0,0,0,0,0,0,0,0,0,0,0,0,0,0,0,0,0,0,0,0,0,0,0,0,0,0,0,0,0,0,0,0,0,0,0,0,0,0,0,0,0,0,0,0,0,0,0,0,0,0,0,0,0,0,0,0,0,0,0,0,0,0,0,0,0,0,0,0,0,0,0,0,0,0,0,0,0,0,0,0,0,0,0,0,0,0,0,0,0,0,0,0,0,0,0,0,0,0,0,0,0,0,0,0,0,0,0,0,0,0,0,0,0,0,0,0,0,0,0,0,0,0,0,0,0,0,0,0,0,0,0,0,0,0,0,0,0,0,0,0,0,0,0,0,0,0,0,0,0,0,0,0,0,0,0,0,0,0,0,0,0,0,0,0,0,0,0,0,0,0,0,0,0],"trees":[{"base_weights":[1.1400806E-11,-1.9132689E-5,3.8861588E-4,-3.1141244E-5,3.0581228E-4,5.0849316E-4,1.6267138E-4,1.4623527E-4,-3.7801008E-5,5.597359E-4,2.2039884E-4,7.033914E-4,3.5057857E-4,2.560889E-4,7.698292E-5,1.8505998E-5,2.6478796E-4,-3.9114435E-5,2.0455908E-4,5.945734E-4,3.7451464E-4,2.6357704E-4,-2.1848516E-6,6.7071454E-4,3.232076E-3,4.0455535E-4,2.9068402E-4,3.927519E-4,1.3183775E-4,4.856832E-5,2.7616767E-4,-7.026909E-5,9.060222E-5,1.9950548E-4,3.2790104E-4,-4.18493E-5,8.140843E-5,3.7341574E-3,9.2791975E-5,7.061052E-4,5.654333E-4,2.9553219E-5,4.3557957E-4,3.104912E-4,2.1891604E-4,-4.3664877E-5,1.9756237E-4,6.000943E-4,1.0404119E-3,1.6572341E-2,5.607244E-4,3.7216916E-4,4.891958E-4,3.0424722E-4,1.6314148E-4,3.4242347E-4,4.3730458E-4,3.644924E-4,1.0595042E-4,-5.91872E-6,6.907653E-5,4.8032714E-4,1.2272963E-4,5.7114205E-5,-8.01609E-5,3.033579E-4,7.842175E-5,4.0701992E-4,1.7867649E-4,4.366517E-4,3.0665612E-4,2.9037847E-6,-4.9243157E-5,1.9516454E-4,1.0788909E-6,3.4738955E-4,9.6812375E-2,2.1824554E-4,-7.4591764E-5,6.410388E-4,8.175312E-4,4.8444074E-4,6.3268247E-4,-2.4169398E-5,3.3316045E-4,4.1629528E-4,7.913214E-4,2.8131687E-4,3.5893993E-4,2.0313384E-4,3.8201472E-4,8.61811E-4,-4.9129165E-5,1.4134628E-3,1.6883282E-4,6.3186156E-4,5.0360704E-4,6.7824795E-4,1.804839E-3,4.2305497E-4,6.900464E-2,4.0556554E-4,8.269624E-4,4.4897158E-4,3.363513E-4,8.114652E-4,4.6900718E-4,3.0171694E-4,1.2204011E-3,3.9383423E-4,1.4207381E-4,4.628045E-4,3.1859873E-4,3.9035757E-3,4.280114E-4,5.2056415E-4,3.1727416E-4,1.2903455E-4,3.062663E-5,-5.9536917E-5,2.851468E-4,1.485695E-4,-1.0085686E-5,3.7337968E-4,6.340685E-4,2.2355794E-4,-1.6507886E-4,4.5030793E-6,6.0398644E-4,-1.1096733E-4,-2.9307676E-5,1.5647561E-4,4.153485E-4,1.7012762E-4,4.5103978E-5,1.0158084E-3,3.382924E-4,1.356269E-4,2.4696958E-4,1.5950914E-3,4.230639E-4,3.6790047E-4,2.558935E-4,-6.704234E-5,1.13332986E-4,7.035835E-5,-5.721238E-5,2.0494898E-4,1.1452929E-4,4.6084155E-5,-7.47463E-5,3.6570687E-5,3.4738614E-3,-1.6623413E-5,2.9047868E-1,2.6529364E-4,1.2132741E-4,1.9928666E-4,-9.4745716E-5,6.154481E-4,1.1349644E-3,9.886101E-4,5.663225E-4,5.837575E-4,4.4963E-4,6.273653E-4,1.3201705E-3,1.4707742E-3,2.586351E-4,3.1853453E-4,4.5044336E-4,4.3018872E-4,1.526863E-3,5.3148234E-4,2.7166444E-4,3.4161925E-4,4.0412924E-4,1.283075E-4,2.1941529E-4,3.6136637E-4,2.2618729E-3,4.657965E-3,9.769539E-5,1.8319246E-5,-9.4452895E-5,1.5694468E-4,6.0861697E-3,3.4268314E-4,9.6024676E-5,5.8869104E-4,6.989043E-4,4.2752214E-4,5.5671635E-4,6.0811406E-4,9.003095E-4,1.1128734E-1,5.800904E-4,1.8342842E-1,2.919805E-4,1.0997219E-3,4.3265484E-4,4.4233256E-4,7.569915E-4,3.6449567E-4,2.8248574E-4,5.97181E-4,1.20757E-3,4.5425017E-4,7.975389E-4,4.5667202E-4,2.9134983E-4,4.9125925E-3,1.8454027E-4,4.1046404E-4,9.6114964E-4,3.4437905E-4,2.427182E-4,1.1329035E-2,1.5267676E-4,4.0274803E-4,5.318563E-4,1.2004124E-4,2.4881327E-4,-4.469939E-6,1.8640367E-4,1.0142076E-4,-7.51946E-5,9.882931E-4,2.1314643E-4,2.1481705E-5,1.9500988E-4,-3.4254914E-5,1.5845303E-4,8.4511226E-4,3.502749E-4,7.2579575E-4,5.0959695E-4,1.1293412E-4,3.6779733E-4,1.149419E-4,-1.8703916E-4],"categories":[],"categories_nodes":[],"categories_segments":[],"categories_sizes":[],"default_left":[0,0,0,0,0,0,0,0,0,0,0,0,0,0,0,0,0,0,0,0,0,0,0,0,0,0,0,0,0,0,0,0,0,0,0,0,0,0,0,0,0,0,0,0,0,0,0,0,0,0,0,0,0,0,0,0,0,0,0,0,0,0,0,0,0,0,0,0,0,0,0,0,0,0,0,0,0,0,0,0,0,0,0,0,0,0,0,0,0,0,0,0,0,0,0,0,0,0,0,0,0,0,0,0,0,0,0,0,0,0,0,0,0,0,0,0,0,0,0,0,0,0,0,0,0,0,0,0,0,0,0,0,0,0,0,0,0,0,0,0,0,0,0,0,0,0,0,0,0,0,0,0,0,0,0,0,0,0,0,0,0,0,0,0,0,0,0,0,0,0,0,0,0,0,0,0,0,0,0,0,0,0,0,0,0,0,0,0,0,0,0,0,0,0,0,0,0,0,0,0,0,0,0,0,0,0,0,0,0,0,0,0,0,0,0,0,0,0,0,0,0,0,0,0,0,0,0,0,0,0,0,0,0,0,0,0,0,0,0,0,0],"id":0,"left_children":[1,3,5,7,9,11,13,15,17,19,21,23,25,27,29,31,33,35,37,39,41,43,45,47,49,51,53,55,57,59,61,63,65,67,69,71,73,75,77,79,81,83,85,87,89,91,93,95,97,99,101,103,105,107,109,111,113,115,117,119,121,123,125,127,129,131,133,135,137,139,141,143,145,147,149,151,153,155,157,159,161,163,165,-1,167,169,171,173,175,177,179,181,183,185,187,189,191,193,195,-1,197,-1,199,201,203,205,207,209,211,-1,-1,213,215,217,219,-1,-1,221,223,225,227,229,231,233,235,237,239,-1,-1,-1,-1,-1,-1,-1,-1,-1,-1,-1,-1,-1,-1,-1,-1,-1,-1,-1,-1,-1,-1,-1,-1,-1,-1,-1,-1,-1,-1,-1,-1,-1,-1,-1,-1,-1,-1,-1,-1,-1,-1,-1,-1,-1,-1,-1,-1,-1,-1,-1,-1,-1,-1,-1,-1,-1,-1,-1,-1,-1,-1,-1,-1,-1,-1,-1,-1,-1,-1,-1,-1,-1,-1,-1,-1,-1,-1,-1,-1,-1,-1,-1,-1,-1,-1,-1,-1,-1,-1,-1,-1,-1,-1,-1,-1,-1,-1,-1,-1,-1,-1,-1,-1,-1,-1,-1,-1,-1,-1,-1,-1,-1,-1],"loss_changes":[8.676344E-3,4.3397984E-3,1.4829896E-3,1.2669666E-3,8.59522E-4,1.1007795E-3,1.5192741E-4,5.877117E-4,3.290627E-4,6.41488E-5,2.850655E-4,1.32081E-3,6.377767E-5,1.541485E-4,5.6029476E-5,1.1959047E-4,8.2869665E-5,3.3889385E-4,2.197768E-3,2.6884954E-5,3.3312026E-5,5.198177E-5,3.9944833E-5,4.12093E-4,7.260562E-3,2.8307084E-5,1.6162812E-5,9.545824E-6,2.8617913E-5,9.685189E-6,3.8659782E-5,1.055625E-5,2.669679E-5,4.2705244E-5,2.3508444E-5,3.326626E-4,2.0846441E-4,5.3871438E-2,1.1345226E-4,1.2054865E-5,3.5973964E-5,3.90628E-6,8.890725E-6,1.7020153E-5,3.269018E-5,1.9793879E-5,2.8720224E-5,4.0371437E-5,7.0030824E-4,2.8760113E-2,6.7284855E-6,2.0538457E-5,1.8311723E-5,1.9266328E-5,4.3327673E-6,5.6890276E-6,7.209633E-5,3.342684E-6,7.443261E-6,3.701977E-5,3.9627503E-5,8.47764E-6,2.0553509E-5,1.7375307E-5,1.2170851E-5,9.113788E-6,2.979504E-5,3.739653E-5,2.6414637E-5,2.5612011E-5,2.6530644E-5,1.1010463E-3,8.223541E-4,7.426017E-6,4.5635832E-5,1.6118618E-4,1.12519905E-1,1.4048506E-5,1.27970625E-5,1.3205397E-5,2.6773225E-5,1.0199263E-5,1.2462959E-5,0E0,2.6717253E-6,4.1195744E-6,1.740587E-5,1.8122897E-5,3.422494E-6,1.4114834E-5,4.2734144E-5,6.916175E-5,1.2135017E-5,1.106003E-4,1.0232499E-5,2.8481707E-5,1.3068435E-5,2.6255439E-5,1.0908352E-1,0E0,6.284535E-2,0E0,6.1923674E-6,4.5505003E-6,7.678755E-6,1.3538527E-5,1.2756791E-5,1.3438112E-5,8.705915E-5,0E0,0E0,8.317409E-6,3.245892E-6,1.6538322E-4,5.780399E-6,0E0,0E0,3.5012163E-6,5.500876E-6,5.0556355E-6,1.8470631E-5,1.8539919E-5,1.2861237E-5,3.1372474E-6,2.0963053E-6,8.319574E-6,1.1529773E-6,0E0,0E0,0E0,0E0,0E0,0E0,0E0,0E0,0E0,0E0,0E0,0E0,0E0,0E0,0E0,0E0,0E0,0E0,0E0,0E0,0E0,0E0,0E0,0E0,0E0,0E0,0E0,0E0,0E0,0E0,0E0,0E0,0E0,0E0,0E0,0E0,0E0,0E0,0E0,0E0,0E0,0E0,0E0,0E0,0E0,0E0,0E0,0E0,0E0,0E0,0E0,0E0,0E0,0E0,0E0,0E0,0E0,0E0,0E0,0E0,0E0,0E0,0E0,0E0,0E0,0E0,0E0,0E0,0E0,0E0,0E0,0E0,0E0,0E0,0E0,0E0,0E0,0E0,0E0,0E0,0E0,0E0,0E0,0E0,0E0,0E0,0E0,0E0,0E0,0E0,0E0,0E0,0E0,0E0,0E0,0E0,0E0,0E0,0E0,0E0,0E0,0E0,0E0,0E0,0E0,0E0,0E0,0E0,0E0,0E0,0E0,0E0,0E0,0E0],"parents":[2147483647,0,0,1,1,2,2,3,3,4,4,5,5,6,6,7,7,8,8,9,9,10,10,11,11,12,12,13,13,14,14,15,15,16,16,17,17,18,18,19,19,20,20,21,21,22,22,23,23,24,24,25,25,26,26,27,27,28,28,29,29,30,30,31,31,32,32,33,33,34,34,35,35,36,36,37,37,38,38,39,39,40,40,41,41,42,42,43,43,44,44,45,45,46,46,47,47,48,48,49,49,50,50,51,51,52,52,53,53,54,54,55,55,56,56,57,57,58,58,59,59,60,60,61,61,62,62,63,63,64,64,65,65,66,66,67,67,68,68,69,69,70,70,71,71,72,72,73,73,74,74,75,75,76,76,77,77,78,78,79,79,80,80,81,81,82,82,84,84,85,85,86,86,87,87,88,88,89,89,90,90,91,91,92,92,93,93,94,94,95,95,96,96,97,97,98,98,100,100,102,102,103,103,104,104,105,105,106,106,107,107,108,108,111,111,112,112,113,113,114,114,117,117,118,118,119,119,120,120,121,121,122,122,123,123,124,124,125,125,126,126],"right_children":[2,4,6,8,10,12,14,16,18,20,22,24,26,28,30,32,34,36,38,40,42,44,46,48,50,52,54,56,58,60,62,64,66,68,70,72,74,76,78,80,82,84,86,88,90,92,94,96,98,100,102,104,106,108,110,112,114,116,118,120,122,124,126,128,130,132,134,136,138,140,142,144,146,148,150,152,154,156,158,160,162,164,166,-1,168,170,172,174,176,178,180,182,184,186,188,190,192,194,196,-1,198,-1,200,202,204,206,208,210,212,-1,-1,214,216,218,220,-1,-1,222,224,226,228,230,232,234,236,238,240,-1,-1,-1,-1,-1,-1,-1,-1,-1,-1,-1,-1,-1,-1,-1,-1,-1,-1,-1,-1,-1,-1,-1,-1,-1,-1,-1,-1,-1,-1,-1,-1,-1,-1,-1,-1,-1,-1,-1,-1,-1,-1,-1,-1,-1,-1,-1,-1,-1,-1,-1,-1,-1,-1,-1,-1,-1,-1,-1,-1,-1,-1,-1,-1,-1,-1,-1,-1,-1,-1,-1,-1,-1,-1,-1,-1,-1,-1,-1,-1,-1,-1,-1,-1,-1,-1,-1,-1,-1,-1,-1,-1,-1,-1,-1,-1,-1,-1,-1,-1,-1,-1,-1,-1,-1,-1,-1,-1,-1,-1,-1,-1,-1,-1],"split_conditions":[7.930786E-1,7.9246736E-1,7.917306E-1,7.257278E-1,7.245613E-1,3.6091927E-1,7.9259086E-1,3.6331326E-1,7.922749E-1,7.916105E-1,7.91843E-1,7.917195E-1,7.913069E-1,3.6196408E-1,7.324838E-1,3.6196408E-1,3.645181E-1,7.9201955E-1,3.6389372E-1,7.9110587E-1,3.6243457E-1,7.9129887E-1,7.932838E-1,3.5884857E-1,3.586561E-1,7.304263E-1,7.916603E-1,7.293885E-1,7.2480726E-1,7.228807E-1,3.63106E-1,7.2029555E-1,7.9062897E-1,7.90865E-1,7.9062897E-1,7.2800523E-1,7.9133564E-1,3.6386803E-1,7.9183006E-1,7.211056E-1,3.6492634E-1,7.94229E-1,3.681161E-1,7.932145E-1,7.9352254E-1,3.613867E-1,3.621045E-1,7.9142374E-1,7.913661E-1,7.3172414E-1,3.587778E-1,7.909998E-1,7.304744E-1,7.350826E-1,7.238672E-1,3.586561E-1,7.294148E-1,7.219894E-1,7.922455E-1,3.6322466E-1,3.6002794E-1,7.3925257E-1,7.933069E-1,3.613867E-1,7.9156303E-1,7.208713E-1,7.2344804E-1,3.6346394E-1,7.915693E-1,3.6455315E-1,7.238672E-1,3.6425164E-1,3.631576E-1,7.9130167E-1,7.918185E-1,7.3175305E-1,7.2877175E-1,7.914656E-1,7.2918314E-1,7.910977E-1,7.219894E-1,7.911944E-1,7.242445E-1,-2.4169398E-5,7.2029555E-1,3.6556426E-1,7.211056E-1,7.2588474E-1,7.9352254E-1,3.6478677E-1,7.918185E-1,7.250688E-1,7.922749E-1,3.6196408E-1,7.9200256E-1,7.3004097E-1,7.3006177E-1,7.306499E-1,7.9136837E-1,4.2305497E-4,7.318814E-1,4.0556554E-4,7.310206E-1,7.909937E-1,3.6607435E-1,7.9119855E-1,7.913024E-1,7.245613E-1,3.6581722E-1,3.9383423E-4,1.4207381E-4,7.9246736E-1,7.922455E-1,7.917789E-1,7.361016E-1,5.2056415E-4,3.1727416E-4,7.921749E-1,7.354937E-1,7.2029555E-1,7.930887E-1,7.252826E-1,7.946042E-1,7.325625E-1,7.946063E-1,7.3925257E-1,3.659359E-1,4.5030793E-6,6.0398644E-4,-1.1096733E-4,-2.9307676E-5,1.5647561E-4,4.153485E-4,1.7012762E-4,4.5103978E-5,1.0158084E-3,3.382924E-4,1.356269E-4,2.4696958E-4,1.5950914E-3,4.230639E-4,3.6790047E-4,2.558935E-4,-6.704234E-5,1.13332986E-4,7.035835E-5,-5.721238E-5,2.0494898E-4,1.1452929E-4,4.6084155E-5,-7.47463E-5,3.6570687E-5,3.4738614E-3,-1.6623413E-5,2.9047868E-1,2.6529364E-4,1.2132741E-4,1.9928666E-4,-9.4745716E-5,6.154481E-4,1.1349644E-3,9.886101E-4,5.663225E-4,5.837575E-4,4.4963E-4,6.273653E-4,1.3201705E-3,1.4707742E-3,2.586351E-4,3.1853453E-4,4.5044336E-4,4.3018872E-4,1.526863E-3,5.3148234E-4,2.7166444E-4,3.4161925E-4,4.0412924E-4,1.283075E-4,2.1941529E-4,3.6136637E-4,2.2618729E-3,4.657965E-3,9.769539E-5,1.8319246E-5,-9.4452895E-5,1.5694468E-4,6.0861697E-3,3.4268314E-4,9.6024676E-5,5.8869104E-4,6.989043E-4,4.2752214E-4,5.5671635E-4,6.0811406E-4,9.003095E-4,1.1128734E-1,5.800904E-4,1.8342842E-1,2.919805E-4,1.0997219E-3,4.3265484E-4,4.4233256E-4,7.569915E-4,3.6449567E-4,2.8248574E-4,5.97181E-4,1.20757E-3,4.5425017E-4,7.975389E-4,4.5667202E-4,2.9134983E-4,4.9125925E-3,1.8454027E-4,4.1046404E-4,9.6114964E-4,3.4437905E-4,2.427182E-4,1.1329035E-2,1.5267676E-4,4.0274803E-4,5.318563E-4,1.2004124E-4,2.4881327E-4,-4.469939E-6,1.8640367E-4,1.0142076E-4,-7.51946E-5,9.882931E-4,2.1314643E-4,2.1481705E-5,1.9500988E-4,-3.4254914E-5,1.5845303E-4,8.4511226E-4,3.502749E-4,7.2579575E-4,5.0959695E-4,1.1293412E-4,3.6779733E-4,1.149419E-4,-1.8703916E-4],"split_indices":[0,2,2,3,3,1,2,1,0,0,0,2,2,1,3,1,1,2,1,0,1,0,2,1,1,3,2,3,3,3,1,3,2,2,2,3,0,1,2,3,1,2,1,2,2,1,1,2,2,3,1,2,3,3,3,1,3,3,2,1,1,3,0,1,2,3,3,1,2,1,3,1,1,0,0,3,3,2,3,0,3,0,3,0,3,1,3,3,2,1,0,3,0,1,0,3,3,3,2,0,3,0,3,2,1,2,2,3,1,0,0,2,2,2,3,0,0,2,3,3,2,3,2,3,0,3,1,0,0,0,0,0,0,0,0,0,0,0,0,0,0,0,0,0,0,0,0,0,0,0,0,0,0,0,0,0,0,0,0,0,0,0,0,0,0,0,0,0,0,0,0,0,0,0,0,0,0,0,0,0,0,0,0,0,0,0,0,0,0,0,0,0,0,0,0,0,0,0,0,0,0,0,0,0,0,0,0,0,0,0,0,0,0,0,0,0,0,0,0,0,0,0,0,0,0,0,0,0,0,0,0,0,0,0,0,0,0,0,0,0,0],"split_type":[0,0,0,0,0,0,0,0,0,0,0,0,0,0,0,0,0,0,0,0,0,0,0,0,0,0,0,0,0,0,0,0,0,0,0,0,0,0,0,0,0,0,0,0,0,0,0,0,0,0,0,0,0,0,0,0,0,0,0,0,0,0,0,0,0,0,0,0,0,0,0,0,0,0,0,0,0,0,0,0,0,0,0,0,0,0,0,0,0,0,0,0,0,0,0,0,0,0,0,0,0,0,0,0,0,0,0,0,0,0,0,0,0,0,0,0,0,0,0,0,0,0,0,0,0,0,0,0,0,0,0,0,0,0,0,0,0,0,0,0,0,0,0,0,0,0,0,0,0,0,0,0,0,0,0,0,0,0,0,0,0,0,0,0,0,0,0,0,0,0,0,0,0,0,0,0,0,0,0,0,0,0,0,0,0,0,0,0,0,0,0,0,0,0,0,0,0,0,0,0,0,0,0,0,0,0,0,0,0,0,0,0,0,0,0,0,0,0,0,0,0,0,0,0,0,0,0,0,0,0,0,0,0,0,0,0,0,0,0,0,0],"sum_hessian":[1.166915E6,1.112161E6,5.4754E4,1.072526E6,3.9635E4,3.5773E4,1.8981E4,3.8811E4,1.033715E6,9.975E3,2.966E4,1.601E4,1.9763E4,9.08E3,9.901E3,1.8683E4,2.0128E4,1.028144E6,5.571E3,8.394E3,1.581E3,2.4841E4,4.819E3,1.5807E4,2.03E2,1.0392E4,9.371E3,4.323E3,4.757E3,8.666E3,1.235E3,8.373E3,1.031E4,9.896E3,1.0232E4,1.005332E6,2.2812E4,1.7E2,5.401E3,1.734E3,6.66E3,2.38E2,1.343E3,1.2112E4,1.2729E4,3.991E3,8.28E2,1.3274E4,2.533E3,3.3E1,1.7E2,7.52E3,2.872E3,8.469E3,9.02E2,2.034E3,2.289E3,4.75E2,4.282E3,2.37E3,6.296E3,5.29E2,7.06E2,6.03E2,7.77E3,5.57E2,9.753E3,9.01E2,8.995E3,1.669E3,8.563E3,1.42545E5,8.62787E5,9.441E3,1.3371E4,1.65E2,5E0,3.087E3,2.314E3,1.099E3,6.35E2,3.025E3,3.635E3,2.03E2,3.5E1,1.276E3,6.7E1,7.564E3,4.548E3,1.1608E4,1.121E3,2.3E1,3.968E3,1.8E1,8.1E2,9.982E3,3.292E3,1.72E3,8.13E2,2.6E1,7E0,1.09E2,6.1E1,2.388E3,5.132E3,1.67E2,2.705E3,8.447E3,2.2E1,7.4E1,8.28E2,3.33E2,1.701E3,5E0,2.284E3,1.08E2,3.67E2,3.277E3,1.005E3,2.002E3,3.68E2,3.141E3,3.155E3,3.14E2,2.15E2,5.23E2,1.83E2,5.51E2,5.2E1,4.838E3,2.932E3,2.42E2,3.15E2,2.598E3,7.155E3,9E1,8.11E2,5.519E3,3.476E3,1.8E1,1.651E3,3.878E3,4.685E3,8.7269E4,5.5276E4,5.3897E4,8.0889E5,8.418E3,1.023E3,8.391E3,4.98E3,1.51E2,1.4E1,4E0,1E0,2.077E3,1.01E3,1.58E2,2.156E3,1.047E3,5.2E1,3.76E2,2.59E2,7.81E2,2.244E3,3.609E3,2.6E1,1E0,3.4E1,3.33E2,9.43E2,4.6E1,2.1E1,2.79E2,7.285E3,3.294E3,1.254E3,2.076E3,9.532E3,1.11E3,1.1E1,3E0,2E1,1.595E3,2.373E3,1.5E1,3E0,2.38E2,5.72E2,6.078E3,3.904E3,1.357E3,1.935E3,1.31E3,4.1E2,8E0,8.05E2,2E0,5E0,3.5E1,2.6E1,2.34E3,4.8E1,3.367E3,1.765E3,1.1E2,5.7E1,2.591E3,1.14E2,5.27E2,7.92E3,4E0,1.8E1,3.03E2,3E1,1.267E3,4.34E2,1E0,4E0,1.841E3,4.43E2,3.05E3,2.27E2,8.21E2,1.84E2,1.77E2,1.825E3,3.3E1,3.35E2,8.41E2,2.3E3,2.76E3,3.95E2,1.3E1,3.01E2,1.21E2,9.4E1,2.97E2,2.26E2,1.3E1,1.7E2],"tree_param":{"num_deleted":"0","num_feature":"4","num_nodes":"241","size_leaf_vector":"1"}},{"base_weights":[5.6579444E-7,-1.4037436E-6,5.4615142E-5,1.00283605E-5,-6.8522563E-6,1.3652608E-4,-2.2883223E-6,-2.3631092E-5,9.118688E-5,4.5366414E-6,-2.6598695E-5,2.0278017E-4,4.6429996E-5,3.6351154E-5,-2.0273632E-5,1.7557721E-6,-5.0584706E-5,3.3520852E-4,8.460175E-5,-8.290355E-6,1.0025655E-4,5.1882413E-5,-4.987169E-5,2.514989E-4,1.49229E-4,2.5416816E-6,7.414465E-5,3.1965163E-5,4.812492E-4,-3.4620636E-5,6.4568274E-5,-2.4252595E-6,6.0735346E-4,-7.778526E-5,-2.4583667E-5,1.6304975E-5,1.17609715E-2,3.616647E-5,1.1216819E-4,-2.608182E-5,1.737144E-5,1.3396553E-4,5.022939E-5,1.5989173E-5,9.62952E-5,-2.6997941E-5,-5.7651043E-5,2.7780244E-4,1.6639151E-5,1.3862786E-4,3.0031014E-4,3.2347933E-5,-1.16472314E-4,6.015144E-4,6.950148E-5,5.7079695E-5,-3.2484886E-7,1.8203785E-4,5.7467413E-3,-5.8958467E-5,-7.949988E-6,-4.3787157E-5,7.8619865E-5,-1.2158065E-5,2.559697E-5,-8.426772E-5,1.7841008E-2,-1.2340416E-4,-5.9839065E-5,-2.7796294E-5,5.153521E-5,7.9931386E-5,-2.3651812E-5,1.2422113E-4,4.223226E-2,5.5557746E-5,8.562763E-6,-1.920612E-5,1.2767437E-4,-4.1842584E-5,-1.5739548E-5,4.895219E-5,-1.3427099E-5,5.9789134E-5,1.5522602E-4,1.5107129E-5,1.08024295E-4,3.4876964E-5,-3.8743787E-5,1.3686318E-4,6.3503365E-5,-3.8783317E-5,3.4114957E-5,-3.153317E-5,-6.9203896E-5,1.5669261E-3,2.7263587E-4,7.790756E-5,-3.8564045E-5,1.3050139E-4,2.5447158E-4,2.4267874E-4,1.1459424E-3,3.9403798E-4,2.344166E-5,2.908274E-3,-1.3182051E-5,6.510809E-5,6.070245E-4,2.7109847E-5,1.0160997E-4,-1.004844E-4,8.929843E-6,4.2241008E-4,8.146373E-5,1.0902807E-2,3.9378373E-4,-2.339284E-5,-8.551365E-5,1.00100215E-5,-6.403174E-5,1.3788215E-4,3.5235484E-5,-1.9505173E-5,6.2043387E-6,4.694099E-5,-3.346217E-5,-1.4151086E-4,2.0844843E-6,-1.995826E-4,6.998045E-2,-8.7893226E-5,-1.4721337E-4,2.8291382E-4,-6.0466282E-5,-2.4838078E-5,-1.5351223E-4,-4.4870783E-5,1.0869239E-4,3.47217E-5,7.329667E-4,2.357573E-4,-3.906029E-5,-3.8783448E-5,9.797765E-4,-9.2122566E-5,8.879829E-2,-2.2614391E-5,6.6709625E-5,6.5326945E-5,-1.48333675E-5,3.30003E-5,-3.3735923E-4,1.2246534E-4,9.058951E-4,-5.615707E-5,4.1645476E-6,7.447455E-6,-2.4912693E-5,5.8398626E-5,2.7301863E-7,-2.500769E-5,3.11749E-5,7.3250754E-5,-4.8454473E-5,1.9156621E-4,1.0400109E-4,4.8596357E-5,-7.503003E-6,9.1034226E-4,1.0551327E-4,2.0608622E-6,5.9121805E-5,4.4711254E-5,-5.5484998E-5,7.7216915E-5,1.6777508E-4,1.19268836E-4,2.583582E-5,-4.548708E-5,2.3769699E-5,3.789974E-4,3.1473566E-5,-4.3064E-5,6.875743E-5,-7.253251E-5,1.0173813E-5,2.395787E-4,1.2065916E-2,4.7055443E-4,2.5863768E-4,-1.389583E-5,2.2107386E-4,2.2427208E-4,1.2296783E-4,1.2079563E-3,1.7707597E-4,1.6043369E-4,5.9811596E-4,9.229904E-3,1.8406089E-4,1.1798892E-3,-7.981677E-5,5.2771265E-5,5.96987E-7,-4.8148468E-5,5.8767335E-3,-4.852743E-5,8.263637E-5,2.2983074E-3,-6.6815905E-5,4.70285E-6,6.2802064E-5,6.486042E-5,3.251675E-4,9.25122E-5,-1.3370172E-4,9.812017E-4,1.2231894E-6,-9.070311E-5,-7.5490816E-6,1.3231086E-5,-9.987573E-5,2.3003082E-5,-9.7952376E-5,5.66103E-5,-8.1450526E-5,-2.0782194E-5,1.6017024E-4,-2.6010764E-5,9.330479E-5],"categories":[],"categories_nodes":[],"categories_segments":[],"categories_sizes":[],"default_left":[0,0,0,0,0,0,0,0,0,0,0,0,0,0,0,0,0,0,0,0,0,0,0,0,0,0,0,0,0,0,0,0,0,0,0,0,0,0,0,0,0,0,0,0,0,0,0,0,0,0,0,0,0,0,0,0,0,0,0,0,0,0,0,0,0,0,0,0,0,0,0,0,0,0,0,0,0,0,0,0,0,0,0,0,0,0,0,0,0,0,0,0,0,0,0,0,0,0,0,0,0,0,0,0,0,0,0,0,0,0,0,0,0,0,0,0,0,0,0,0,0,0,0,0,0,0,0,0,0,0,0,0,0,0,0,0,0,0,0,0,0,0,0,0,0,0,0,0,0,0,0,0,0,0,0,0,0,0,0,0,0,0,0,0,0,0,0,0,0,0,0,0,0,0,0,0,0,0,0,0,0,0,0,0,0,0,0,0,0,0,0,0,0,0,0,0,0,0,0,0,0,0,0,0,0,0,0,0,0,0,0,0,0,0,0,0,0,0,0,0,0,0,0,0,0,0,0,0,0,0,0],"id":1,"left_children":[1,3,5,7,9,11,13,15,17,19,21,23,25,27,29,31,33,35,37,39,41,43,45,47,49,51,53,55,57,59,61,63,65,67,69,71,73,75,77,79,81,83,85,87,89,91,93,95,97,99,101,103,-1,105,107,109,111,113,115,117,119,-1,121,123,125,127,129,131,133,135,137,139,141,143,145,147,149,151,153,155,157,159,161,163,165,167,169,171,173,175,177,179,181,183,185,187,189,191,-1,193,195,197,199,201,203,205,-1,207,209,211,213,215,217,-1,-1,-1,-1,219,221,223,225,227,229,-1,-1,-1,-1,-1,-1,-1,-1,-1,-1,-1,-1,-1,-1,-1,-1,-1,-1,-1,-1,-1,-1,-1,-1,-1,-1,-1,-1,-1,-1,-1,-1,-1,-1,-1,-1,-1,-1,-1,-1,-1,-1,-1,-1,-1,-1,-1,-1,-1,-1,-1,-1,-1,-1,-1,-1,-1,-1,-1,-1,-1,-1,-1,-1,-1,-1,-1,-1,-1,-1,-1,-1,-1,-1,-1,-1,-1,-1,-1,-1,-1,-1,-1,-1,-1,-1,-1,-1,-1,-1,-1,-1,-1,-1,-1,-1,-1,-1,-1,-1,-1,-1,-1,-1,-1,-1,-1,-1],"loss_changes":[1.2422088E-4,7.012947E-5,1.9122787E-4,9.927233E-4,1.7147661E-4,1.0038115E-4,1.6825305E-5,1.7576726E-4,1.7116085E-4,5.937423E-4,5.094272E-4,2.524574E-5,8.669951E-6,1.4990259E-5,2.0112047E-5,3.349375E-4,8.811345E-5,1.0198571E-2,1.3850164E-4,1.9469537E-4,9.636057E-5,1.01690486E-4,3.8277183E-5,3.133458E-5,7.3563133E-6,9.794484E-6,1.0656413E-5,6.176202E-6,1.17116004E-4,9.172692E-6,3.6423762E-6,3.583059E-5,1.0812181E-2,4.9842347E-5,1.5578968E-5,6.9271346E-6,2.6943348E-2,2.0140174E-5,1.3467402E-4,4.104947E-5,1.6982475E-4,5.3830387E-5,4.6697973E-5,3.647431E-5,3.7920778E-5,3.932345E-5,4.8433372E-5,2.9957271E-5,1.7346971E-6,4.031761E-6,1.44398655E-5,7.103416E-6,0E0,5.3920703E-5,1.01907135E-5,5.7145253E-6,3.0904075E-6,1.7062052E-6,1.0610746E-4,6.976552E-6,6.7933915E-6,0E0,5.4354996E-6,1.3154979E-5,4.2692933E-5,4.315595E-6,3.2935888E-2,1.4521007E-5,9.411946E-6,2.2727134E-5,1.4221436E-5,3.1003772E-5,6.700354E-6,7.847727E-6,4.1396637E-2,1.9268402E-5,2.0621792E-5,1.1594638E-4,2.3958908E-4,6.57122E-5,3.2342792E-5,3.9641352E-5,4.565886E-5,1.108797E-5,4.9373775E-5,1.0836595E-5,1.7423277E-5,2.0869018E-5,1.264938E-5,2.3484172E-5,3.3120472E-5,1.919431E-5,8.029204E-6,5.693536E-5,2.9406336E-5,2.479538E-4,1.2470206E-5,3.1968577E-6,0E0,2.8242648E-6,2.0596446E-5,8.2062E-6,1.4604158E-4,1.983028E-5,1.4445427E-6,7.049113E-5,0E0,8.564917E-6,4.004148E-5,2.0486787E-6,1.41344535E-5,1.8202227E-6,2.2867316E-5,0E0,0E0,0E0,0E0,3.36929E-6,6.0002203E-6,7.1689637E-6,3.442563E-6,3.1648033E-6,4.35206E-6,0E0,0E0,0E0,0E0,0E0,0E0,0E0,0E0,0E0,0E0,0E0,0E0,0E0,0E0,0E0,0E0,0E0,0E0,0E0,0E0,0E0,0E0,0E0,0E0,0E0,0E0,0E0,0E0,0E0,0E0,0E0,0E0,0E0,0E0,0E0,0E0,0E0,0E0,0E0,0E0,0E0,0E0,0E0,0E0,0E0,0E0,0E0,0E0,0E0,0E0,0E0,0E0,0E0,0E0,0E0,0E0,0E0,0E0,0E0,0E0,0E0,0E0,0E0,0E0,0E0,0E0,0E0,0E0,0E0,0E0,0E0,0E0,0E0,0E0,0E0,0E0,0E0,0E0,0E0,0E0,0E0,0E0,0E0,0E0,0E0,0E0,0E0,0E0,0E0,0E0,0E0,0E0,0E0,0E0,0E0,0E0,0E0,0E0,0E0,0E0,0E0,0E0,0E0,0E0,0E0,0E0,0E0,0E0],"parents":[2147483647,0,0,1,1,2,2,3,3,4,4,5,5,6,6,7,7,8,8,9,9,10,10,11,11,12,12,13,13,14,14,15,15,16,16,17,17,18,18,19,19,20,20,21,21,22,22,23,23,24,24,25,25,26,26,27,27,28,28,29,29,30,30,31,31,32,32,33,33,34,34,35,35,36,36,37,37,38,38,39,39,40,40,41,41,42,42,43,43,44,44,45,45,46,46,47,47,48,48,49,49,50,50,51,51,53,53,54,54,55,55,56,56,57,57,58,58,59,59,60,60,62,62,63,63,64,64,65,65,66,66,67,67,68,68,69,69,70,70,71,71,72,72,73,73,74,74,75,75,76,76,77,77,78,78,79,79,80,80,81,81,82,82,83,83,84,84,85,85,86,86,87,87,88,88,89,89,90,90,91,91,92,92,93,93,94,94,95,95,96,96,97,97,99,99,100,100,101,101,102,102,103,103,104,104,105,105,107,107,108,108,109,109,110,110,111,111,112,112,117,117,118,118,119,119,120,120,121,121,122,122],"right_children":[2,4,6,8,10,12,14,16,18,20,22,24,26,28,30,32,34,36,38,40,42,44,46,48,50,52,54,56,58,60,62,64,66,68,70,72,74,76,78,80,82,84,86,88,90,92,94,96,98,100,102,104,-1,106,108,110,112,114,116,118,120,-1,122,124,126,128,130,132,134,136,138,140,142,144,146,148,150,152,154,156,158,160,162,164,166,168,170,172,174,176,178,180,182,184,186,188,190,192,-1,194,196,198,200,202,204,206,-1,208,210,212,214,216,218,-1,-1,-1,-1,220,222,224,226,228,230,-1,-1,-1,-1,-1,-1,-1,-1,-1,-1,-1,-1,-1,-1,-1,-1,-1,-1,-1,-1,-1,-1,-1,-1,-1,-1,-1,-1,-1,-1,-1,-1,-1,-1,-1,-1,-1,-1,-1,-1,-1,-1,-1,-1,-1,-1,-1,-1,-1,-1,-1,-1,-1,-1,-1,-1,-1,-1,-1,-1,-1,-1,-1,-1,-1,-1,-1,-1,-1,-1,-1,-1,-1,-1,-1,-1,-1,-1,-1,-1,-1,-1,-1,-1,-1,-1,-1,-1,-1,-1,-1,-1,-1,-1,-1,-1,-1,-1,-1,-1,-1,-1,-1,-1,-1,-1,-1,-1],"split_conditions":[7.345173E-1,3.64278E-1,3.6577433E-1,7.2989506E-1,7.3120034E-1,7.9201955E-1,3.6658075E-1,7.2800523E-1,7.299198E-1,3.6610854E-1,3.6525726E-1,3.648745E-1,7.9118735E-1,7.946042E-1,7.9200256E-1,3.6426383E-1,7.2900087E-1,7.9448783E-1,7.3055536E-1,3.6523268E-1,7.3057353E-1,7.3198503E-1,3.6566985E-1,7.926164E-1,7.378651E-1,3.651055E-1,7.9118985E-1,7.919984E-1,3.6610854E-1,7.918851E-1,7.3481977E-1,3.6367056E-1,7.2795975E-1,3.631576E-1,7.9170656E-1,3.6343673E-1,3.5884857E-1,7.911687E-1,3.6002794E-1,3.646973E-1,7.3000425E-1,7.2800523E-1,3.6658075E-1,7.9144216E-1,7.9127645E-1,7.3284096E-1,7.3195416E-1,3.6091927E-1,3.587286E-1,3.6572644E-1,7.9167014E-1,7.3481977E-1,-1.16472314E-4,7.920516E-1,3.6576042E-1,7.9169184E-1,7.9129887E-1,7.930786E-1,3.6619672E-1,3.6731142E-1,3.681161E-1,-4.3787157E-5,3.687194E-1,7.9152024E-1,7.2766536E-1,7.9114616E-1,7.91264E-1,3.6269343E-1,7.9079777E-1,7.9448783E-1,7.293885E-1,3.6338577E-1,7.9089546E-1,7.9468805E-1,7.9135555E-1,7.910643E-1,7.912504E-1,3.5884857E-1,7.922749E-1,7.303461E-1,7.289745E-1,7.91911E-1,7.9173553E-1,7.9449064E-1,7.913209E-1,7.308715E-1,7.9130316E-1,7.9150903E-1,7.9138386E-1,7.9143786E-1,7.916603E-1,7.9189754E-1,7.91006E-1,3.669496E-1,3.6785287E-1,7.918303E-1,7.915907E-1,3.5870442E-1,-3.8564045E-5,7.910944E-1,7.915907E-1,3.655536E-1,7.916775E-1,7.9101145E-1,3.6397144E-1,7.378651E-1,-1.3182051E-5,7.354937E-1,7.9210097E-1,7.918115E-1,3.6644208E-1,7.9201955E-1,7.913004E-1,4.2241008E-4,8.146373E-5,1.0902807E-2,3.9378373E-4,7.3462546E-1,7.3462546E-1,7.9246736E-1,7.9169184E-1,7.9179645E-1,7.378651E-1,-1.9505173E-5,6.2043387E-6,4.694099E-5,-3.346217E-5,-1.4151086E-4,2.0844843E-6,-1.995826E-4,6.998045E-2,-8.7893226E-5,-1.4721337E-4,2.8291382E-4,-6.0466282E-5,-2.4838078E-5,-1.5351223E-4,-4.4870783E-5,1.0869239E-4,3.47217E-5,7.329667E-4,2.357573E-4,-3.906029E-5,-3.8783448E-5,9.797765E-4,-9.2122566E-5,8.879829E-2,-2.2614391E-5,6.6709625E-5,6.5326945E-5,-1.48333675E-5,3.30003E-5,-3.3735923E-4,1.2246534E-4,9.058951E-4,-5.615707E-5,4.1645476E-6,7.447455E-6,-2.4912693E-5,5.8398626E-5,2.7301863E-7,-2.500769E-5,3.11749E-5,7.3250754E-5,-4.8454473E-5,1.9156621E-4,1.0400109E-4,4.8596357E-5,-7.503003E-6,9.1034226E-4,1.0551327E-4,2.0608622E-6,5.9121805E-5,4.4711254E-5,-5.5484998E-5,7.7216915E-5,1.6777508E-4,1.19268836E-4,2.583582E-5,-4.548708E-5,2.3769699E-5,3.789974E-4,3.1473566E-5,-4.3064E-5,6.875743E-5,-7.253251E-5,1.0173813E-5,2.395787E-4,1.2065916E-2,4.7055443E-4,2.5863768E-4,-1.389583E-5,2.2107386E-4,2.2427208E-4,1.2296783E-4,1.2079563E-3,1.7707597E-4,1.6043369E-4,5.9811596E-4,9.229904E-3,1.8406089E-4,1.1798892E-3,-7.981677E-5,5.2771265E-5,5.96987E-7,-4.8148468E-5,5.8767335E-3,-4.852743E-5,8.263637E-5,2.2983074E-3,-6.6815905E-5,4.70285E-6,6.2802064E-5,6.486042E-5,3.251675E-4,9.25122E-5,-1.3370172E-4,9.812017E-4,1.2231894E-6,-9.070311E-5,-7.5490816E-6,1.3231086E-5,-9.987573E-5,2.3003082E-5,-9.7952376E-5,5.66103E-5,-8.1450526E-5,-2.0782194E-5,1.6017024E-4,-2.6010764E-5,9.330479E-5],"split_indices":[3,1,1,3,3,2,1,3,3,1,1,1,0,2,0,1,3,0,3,1,3,3,1,0,3,1,0,2,1,2,3,1,3,1,2,1,1,0,1,1,3,3,1,0,0,3,3,1,1,1,0,3,0,2,1,0,0,0,1,1,1,0,1,2,3,2,0,1,2,0,3,1,0,0,2,2,2,1,0,3,3,0,0,2,2,3,0,2,2,2,2,2,0,1,1,0,2,1,0,0,2,1,0,0,1,3,0,3,2,2,1,2,0,0,0,0,0,3,3,2,0,2,3,0,0,0,0,0,0,0,0,0,0,0,0,0,0,0,0,0,0,0,0,0,0,0,0,0,0,0,0,0,0,0,0,0,0,0,0,0,0,0,0,0,0,0,0,0,0,0,0,0,0,0,0,0,0,0,0,0,0,0,0,0,0,0,0,0,0,0,0,0,0,0,0,0,0,0,0,0,0,0,0,0,0,0,0,0,0,0,0,0,0,0,0,0,0,0,0,0,0,0,0,0,0,0,0,0,0,0,0],"split_type":[0,0,0,0,0,0,0,0,0,0,0,0,0,0,0,0,0,0,0,0,0,0,0,0,0,0,0,0,0,0,0,0,0,0,0,0,0,0,0,0,0,0,0,0,0,0,0,0,0,0,0,0,0,0,0,0,0,0,0,0,0,0,0,0,0,0,0,0,0,0,0,0,0,0,0,0,0,0,0,0,0,0,0,0,0,0,0,0,0,0,0,0,0,0,0,0,0,0,0,0,0,0,0,0,0,0,0,0,0,0,0,0,0,0,0,0,0,0,0,0,0,0,0,0,0,0,0,0,0,0,0,0,0,0,0,0,0,0,0,0,0,0,0,0,0,0,0,0,0,0,0,0,0,0,0,0,0,0,0,0,0,0,0,0,0,0,0,0,0,0,0,0,0,0,0,0,0,0,0,0,0,0,0,0,0,0,0,0,0,0,0,0,0,0,0,0,0,0,0,0,0,0,0,0,0,0,0,0,0,0,0,0,0,0,0,0,0,0,0,0,0,0,0,0,0,0,0,0,0,0,0],"sum_hessian":[1.166915E6,1.125889E6,4.1026E4,3.634E5,7.62489E5,1.6817E4,2.4209E4,2.56868E5,1.06532E5,4.83581E5,2.78908E5,9.69E3,7.127E3,7.689E3,1.652E4,1.32279E5,1.24589E5,2.798E3,1.03734E5,4.26437E5,5.7144E4,6.3791E4,2.15117E5,5.072E3,4.618E3,2.759E3,4.368E3,7.615E3,7.4E1,1.4131E4,2.389E3,1.31373E5,9.06E2,6.0889E4,6.37E4,2.723E3,7.5E1,3.7626E4,6.6108E4,2.51837E5,1.746E5,3.4139E4,2.3005E4,3.528E4,2.8511E4,5.4595E4,1.60522E5,4.561E3,5.11E2,4.317E3,3.01E2,2.207E3,5.52E2,3.7E1,4.331E3,4.283E3,3.332E3,7.1E1,3E0,7.388E3,6.743E3,2.74E2,2.115E3,9.7507E4,3.3866E4,8.72E2,3.4E1,1.7189E4,4.37E4,6.1121E4,2.579E3,1.05E3,1.673E3,5.5E1,2E1,2.21E4,1.5526E4,6.979E3,5.9129E4,9.9779E4,1.52058E5,8.6205E4,8.8395E4,7.606E3,2.6533E4,1.431E4,8.695E3,2.6229E4,9.051E3,1.2743E4,1.5768E4,4.5769E4,8.826E3,4.923E4,1.11292E5,1.7E1,4.544E3,2.42E2,2.69E2,4.036E3,2.81E2,2.83E2,1.8E1,5.2E1,2.155E3,7E0,3E1,4.297E3,3.4E1,2.561E3,1.722E3,2.81E2,3.051E3,2E1,5.1E1,1E0,2E0,3.159E3,4.229E3,5.108E3,1.635E3,8.93E2,1.222E3,6.9642E4,2.7865E4,2.4876E4,8.99E3,5.24E2,3.48E2,2.6E1,8E0,6.901E3,1.0288E4,7.9E1,4.3621E4,5.9717E4,1.404E3,9.6E2,1.619E3,9.83E2,6.7E1,9.3E1,1.58E3,4.7E1,8E0,1.1E1,9E0,2.759E3,1.9341E4,4.531E3,1.0995E4,5.996E3,9.83E2,5.8737E4,3.92E2,7.6101E4,2.3678E4,4.3104E4,1.08954E5,7.2195E4,1.401E4,7.0175E4,1.822E4,6.765E3,8.41E2,1.552E4,1.1013E4,5.767E3,8.543E3,2.6E1,8.669E3,1.1145E4,1.5084E4,1.512E3,7.539E3,4.351E3,8.392E3,6.356E3,9.412E3,4.1339E4,4.43E3,6.6E1,8.76E3,4.4154E4,5.076E3,1.06813E5,4.479E3,1.6E1,1E0,2.98E2,4.246E3,1.48E2,9.4E1,2.98E2,3.738E3,2E1,2.61E2,2.31E2,5.2E1,1E0,1.7E1,1.9E1,3.3E1,9.43E2,1.212E3,4E0,3E0,5.74E2,3.723E3,9E0,2.5E1,1.574E3,9.87E2,1.48E3,2.42E2,4.1E1,2.4E2,2.3E1,3.028E3,6.01E2,2.558E3,5.37E2,3.692E3,4.56E3,5.48E2,2.06E2,1.429E3,1.1E2,7.83E2,5.95E2,6.27E2],"tree_param":{"num_deleted":"0","num_feature":"4","num_nodes":"231","size_leaf_vector":"1"}},{"base_weights":[1.8031515E-7,1.5733837E-6,-1.8223429E-5,-3.9171783E-7,1.3773006E-5,-4.457826E-5,-6.062115E-6,-2.6967796E-6,1.176532E-5,5.6627E-5,-9.691977E-6,-1.5977415E-5,-8.948238E-5,1.8732895E-5,-1.36965355E-5,3.4901972E-5,-3.5358178E-6,4.3938075E-5,-1.8376835E-5,6.5544795E-5,6.814878E-7,3.4897448E-4,-1.1854999E-5,-1.8525543E-5,2.2473269E-4,-7.1801036E-4,-6.9614835E-5,1.0109583E-4,4.242673E-6,-3.9927214E-5,-5.834456E-6,3.443789E-6,7.021557E-5,-1.9331146E-6,-1.9842024E-5,5.7769917E-6,7.793379E-5,-1.2501907E-5,-1.579241E-4,5.1331135E-5,1.186739E-4,-6.583093E-5,1.8832681E-5,5.0710947E-3,-3.3688016E-4,-2.2421213E-5,1.6934055E-5,3.4285982E-5,-2.4294186E-5,5.803562E-3,8.6450185E-5,-1.4409413E-4,-1.3774558E-2,-1.0285392E-4,2.1119058E-5,1.482383E-4,5.140008E-6,-1.27348585E-5,7.288144E-5,-4.2525746E-5,3.9452853E-4,1.5482318E-4,-7.4146456E-6,1.7668728E-5,-3.5203986E-5,1.1100584E-3,6.671961E-5,-3.409239E-6,2.5404757E-5,3.005063E-5,-2.4621675E-5,1.6748323E-5,-3.9744723E-4,3.194595E-4,5.6077755E-5,-2.1940961E-5,2.722497E-5,-6.5742543E-6,-8.852398E-4,9.041257E-5,1.8678526E-5,3.3255573E-4,1.1362541E-4,-4.225417E-5,-1.1404691E-4,4.3258158E-4,8.209032E-6,1.5352406E-4,2.0361675E-2,-1.0829512E-2,2.4884263E-5,1.1246916E-5,-3.273807E-5,3.498211E-5,7.3120455E-6,1.2556318E-4,-1.4932392E-5,3.9358065E-6,-3.472965E-5,-6.520372E-5,1.1704929E-2,-5.319246E-5,1.1475941E-3,-1.2485875E-4,-5.9231933E-2,2.958101E-5,-1.2685443E-4,-6.3181804E-5,6.0939597E-5,1.3045366E-4,1.9358209E-3,3.3899712E-5,-1.2828983E-4,1.5121195E-5,-4.932526E-5,7.71238E-4,5.684537E-5,1.7289125E-4,-4.657657E-5,3.2802531E-3,5.951156E-6,-8.5679196E-5,5.6038285E-4,-2.6634318E-5,-2.9295742E-7,3.2200525E-5,-6.8921618E-6,-5.0678696E-5,9.039955E-5,2.5470916E-4,5.9646396E-3,3.5386486E-4,6.129744E-5,-4.3635932E-6,1.6470423E-5,8.832847E-5,1.0683695E-5,2.5551128E-5,2.689833E-4,-5.819584E-5,-1.9673265E-5,6.179365E-5,-1.8413664E-6,-5.250809E-5,-3.3508886E-3,1.1024636E-4,4.117595E-3,-7.662328E-5,7.6764336E-5,-2.360667E-5,2.0631574E-4,6.8684894E-5,1.2588255E-6,6.604106E-5,-4.8299593E-5,-3.3654259E-3,1.9143234E-4,5.2639436E-5,1.091402E-4,6.2776504E-5,-8.424632E-7,2.3235884E-4,2.4435136E-3,1.2631819E-4,5.6475103E-5,2.7993083E-4,3.8968935E-3,-1.1386797E-5,3.1932348E-5,9.631769E-4,-6.10272E-5,1.8317318E-1,9.6339845E-6,-1.0505679E-4,-3.0473504E-2,1.8166834E-4,-2.9290903E-5,4.8672446E-6,8.502993E-5,-4.277461E-5,1.8113053E-5,3.0622505E-5,1.7153578E-4,3.363706E-5,-2.8342715E-6,7.380804E-4,7.38606E-5,-3.527897E-5,8.5442717E-4,5.8111622E-5,-2.7993687E-5,-1.4132515E-5,-6.5044616E-5,1.732294E-4,-2.0182059E-4,7.7784467E-3,-9.006195E-5,-4.0338116E-5,4.82665E-4,-7.8473124E-5,-1.6050847E-4,-4.9144303E-4,-5.9003032E-5,5.661303E-6,1.9766961E-4,1.1377045E-4,1.6726728E-3,1.2083729E-2,8.318447E-5,5.668724E-6,1.68118E-4,-6.897517E-5,2.2206741E-5,3.131646E-4,1.1608416E-2,1.2286026E-4,-4.947677E-6,1.4301315E-3,5.1401814E-5,-7.814281E-5,-3.438413E-5,1.1830067E-2,-1.16393705E-4,1.6412307E-3,-1.8297722E-4,3.7475524E-4,-2.8636647E-5,1.8947794E-4,-1.5726948E-6],"categories":[],"categories_nodes":[],"categories_segments":[],"categories_sizes":[],"default_left":[0,0,0,0,0,0,0,0,0,0,0,0,0,0,0,0,0,0,0,0,0,0,0,0,0,0,0,0,0,0,0,0,0,0,0,0,0,0,0,0,0,0,0,0,0,0,0,0,0,0,0,0,0,0,0,0,0,0,0,0,0,0,0,0,0,0,0,0,0,0,0,0,0,0,0,0,0,0,0,0,0,0,0,0,0,0,0,0,0,0,0,0,0,0,0,0,0,0,0,0,0,0,0,0,0,0,0,0,0,0,0,0,0,0,0,0,0,0,0,0,0,0,0,0,0,0,0,0,0,0,0,0,0,0,0,0,0,0,0,0,0,0,0,0,0,0,0,0,0,0,0,0,0,0,0,0,0,0,0,0,0,0,0,0,0,0,0,0,0,0,0,0,0,0,0,0,0,0,0,0,0,0,0,0,0,0,0,0,0,0,0,0,0,0,0,0,0,0,0,0,0,0,0,0,0,0,0,0,0,0,0,0,0,0,0,0,0,0,0,0,0,0,0,0,0,0,0,0,0],"id":2,"left_children":[1,3,5,7,9,11,13,15,17,19,21,23,25,27,29,31,33,35,37,39,41,43,45,47,49,51,53,55,57,59,61,63,65,67,69,71,73,75,77,79,81,83,85,87,89,91,93,95,97,99,101,-1,103,105,107,109,111,113,115,117,119,121,123,125,127,129,131,133,135,137,139,141,143,145,147,149,151,153,155,157,159,161,163,-1,-1,165,167,169,171,173,175,177,179,181,183,185,187,189,191,-1,-1,193,195,-1,-1,197,199,201,203,205,207,-1,-1,209,211,213,215,217,219,221,-1,-1,223,225,227,-1,-1,-1,-1,-1,-1,-1,-1,-1,-1,-1,-1,-1,-1,-1,-1,-1,-1,-1,-1,-1,-1,-1,-1,-1,-1,-1,-1,-1,-1,-1,-1,-1,-1,-1,-1,-1,-1,-1,-1,-1,-1,-1,-1,-1,-1,-1,-1,-1,-1,-1,-1,-1,-1,-1,-1,-1,-1,-1,-1,-1,-1,-1,-1,-1,-1,-1,-1,-1,-1,-1,-1,-1,-1,-1,-1,-1,-1,-1,-1,-1,-1,-1,-1,-1,-1,-1,-1,-1,-1,-1,-1,-1,-1,-1,-1,-1,-1,-1,-1,-1,-1,-1,-1],"loss_changes":[2.9917042E-5,2.6006528E-5,2.6318037E-5,2.6181859E-5,1.5133554E-4,3.3296506E-5,1.0636393E-5,2.477672E-5,1.4441302E-4,2.6566442E-5,7.545025E-5,9.719786E-6,1.25922E-4,1.5786623E-5,8.859514E-6,1.9045052E-5,2.0077388E-5,9.344763E-5,6.3030675E-5,3.4676865E-5,8.840942E-6,1.8898635E-3,2.940564E-5,4.7762355E-6,1.2755972E-4,2.313465E-3,2.9497784E-5,8.951431E-6,1.3110742E-5,1.1201266E-5,8.392805E-6,4.985866E-6,2.928784E-5,2.8227701E-5,1.6395998E-5,1.5014519E-4,2.0107777E-4,2.766693E-5,3.4189995E-4,4.6239446E-5,1.0428543E-5,1.7799202E-6,2.5283895E-5,5.561119E-3,1.9361585E-3,2.4562825E-5,4.506877E-6,6.938319E-6,4.1633266E-6,1.3929816E-4,2.4214534E-5,0E0,8.058839E-3,2.2755507E-5,8.809014E-6,4.1934814E-5,2.510173E-6,9.1945085E-6,2.4940893E-5,8.602452E-6,6.613879E-5,3.1455267E-5,4.480508E-6,2.3662035E-6,4.7471563E-6,1.1059453E-4,1.2513305E-5,1.2591264E-5,3.319315E-5,6.455425E-6,1.0422733E-5,2.7667102E-5,9.1568707E-4,2.5113397E-3,9.5907E-5,2.267142E-5,1.5249307E-5,7.7960885E-6,1.42928E-3,1.1662138E-5,1.6995542E-5,4.6599263E-5,6.8630907E-6,0E0,0E0,7.506063E-5,2.6083294E-6,9.960366E-6,5.9642065E-2,3.578207E-3,4.20126E-6,7.807277E-6,2.7626047E-5,5.3675094E-6,4.5221313E-6,1.707826E-5,1.7789387E-5,6.600838E-6,6.4416545E-6,0E0,0E0,4.914597E-6,1.5662811E-4,0E0,0E0,3.4834953E-5,9.854455E-6,1.4778504E-6,1.3467597E-5,3.3643526E-5,2.4339982E-4,0E0,0E0,7.406473E-6,5.4819566E-6,2.4457581E-4,8.901556E-6,2.7725428E-5,3.7182326E-6,2.0466186E-4,0E0,0E0,9.67154E-5,7.1235986E-6,5.8009355E-6,0E0,0E0,0E0,0E0,0E0,0E0,0E0,0E0,0E0,0E0,0E0,0E0,0E0,0E0,0E0,0E0,0E0,0E0,0E0,0E0,0E0,0E0,0E0,0E0,0E0,0E0,0E0,0E0,0E0,0E0,0E0,0E0,0E0,0E0,0E0,0E0,0E0,0E0,0E0,0E0,0E0,0E0,0E0,0E0,0E0,0E0,0E0,0E0,0E0,0E0,0E0,0E0,0E0,0E0,0E0,0E0,0E0,0E0,0E0,0E0,0E0,0E0,0E0,0E0,0E0,0E0,0E0,0E0,0E0,0E0,0E0,0E0,0E0,0E0,0E0,0E0,0E0,0E0,0E0,0E0,0E0,0E0,0E0,0E0,0E0,0E0,0E0,0E0,0E0,0E0,0E0,0E0,0E0,0E0,0E0,0E0,0E0,0E0,0E0,0E0,0E0,0E0,0E0,0E0],"parents":[2147483647,0,0,1,1,2,2,3,3,4,4,5,5,6,6,7,7,8,8,9,9,10,10,11,11,12,12,13,13,14,14,15,15,16,16,17,17,18,18,19,19,20,20,21,21,22,22,23,23,24,24,25,25,26,26,27,27,28,28,29,29,30,30,31,31,32,32,33,33,34,34,35,35,36,36,37,37,38,38,39,39,40,40,41,41,42,42,43,43,44,44,45,45,46,46,47,47,48,48,49,49,50,50,52,52,53,53,54,54,55,55,56,56,57,57,58,58,59,59,60,60,61,61,62,62,63,63,64,64,65,65,66,66,67,67,68,68,69,69,70,70,71,71,72,72,73,73,74,74,75,75,76,76,77,77,78,78,79,79,80,80,81,81,82,82,85,85,86,86,87,87,88,88,89,89,90,90,91,91,92,92,93,93,94,94,95,95,96,96,97,97,98,98,101,101,102,102,105,105,106,106,107,107,108,108,109,109,110,110,113,113,114,114,115,115,116,116,117,117,118,118,119,119,122,122,123,123,124,124],"right_children":[2,4,6,8,10,12,14,16,18,20,22,24,26,28,30,32,34,36,38,40,42,44,46,48,50,52,54,56,58,60,62,64,66,68,70,72,74,76,78,80,82,84,86,88,90,92,94,96,98,100,102,-1,104,106,108,110,112,114,116,118,120,122,124,126,128,130,132,134,136,138,140,142,144,146,148,150,152,154,156,158,160,162,164,-1,-1,166,168,170,172,174,176,178,180,182,184,186,188,190,192,-1,-1,194,196,-1,-1,198,200,202,204,206,208,-1,-1,210,212,214,216,218,220,222,-1,-1,224,226,228,-1,-1,-1,-1,-1,-1,-1,-1,-1,-1,-1,-1,-1,-1,-1,-1,-1,-1,-1,-1,-1,-1,-1,-1,-1,-1,-1,-1,-1,-1,-1,-1,-1,-1,-1,-1,-1,-1,-1,-1,-1,-1,-1,-1,-1,-1,-1,-1,-1,-1,-1,-1,-1,-1,-1,-1,-1,-1,-1,-1,-1,-1,-1,-1,-1,-1,-1,-1,-1,-1,-1,-1,-1,-1,-1,-1,-1,-1,-1,-1,-1,-1,-1,-1,-1,-1,-1,-1,-1,-1,-1,-1,-1,-1,-1,-1,-1,-1,-1,-1,-1,-1,-1,-1],"split_conditions":[7.9201955E-1,7.917001E-1,3.6422202E-1,7.916105E-1,7.913946E-1,7.296842E-1,7.2887963E-1,3.6217484E-1,7.9138386E-1,7.345173E-1,3.586561E-1,7.295971E-1,7.299055E-1,7.9246736E-1,7.912967E-1,7.271084E-1,3.6610854E-1,7.297846E-1,7.9448783E-1,3.654656E-1,7.9108083E-1,7.9172516E-1,3.665198E-1,7.9093236E-1,7.90864E-1,7.2989506E-1,7.3462546E-1,7.9171574E-1,7.918303E-1,3.6639637E-1,7.913004E-1,3.6196408E-1,3.586561E-1,7.323194E-1,7.294148E-1,7.913661E-1,7.299198E-1,7.3265505E-1,3.5884857E-1,7.911687E-1,7.911361E-1,3.6425164E-1,7.910944E-1,7.3172414E-1,7.917306E-1,7.915463E-1,7.3265505E-1,7.9259086E-1,3.587778E-1,7.908547E-1,7.930887E-1,-1.4409413E-4,7.9448783E-1,7.30634E-1,3.6217484E-1,7.916775E-1,7.2814137E-1,3.6528447E-1,7.91843E-1,3.6425164E-1,7.303042E-1,3.6574343E-1,7.311282E-1,7.912888E-1,7.913447E-1,7.9141116E-1,7.2718155E-1,3.6570707E-1,3.6434525E-1,7.9147387E-1,7.912143E-1,3.6536634E-1,7.9448783E-1,7.913661E-1,3.6386803E-1,3.681161E-1,3.6632103E-1,3.5870442E-1,7.299198E-1,3.6333394E-1,7.3120034E-1,7.341988E-1,7.9136634E-1,-4.225417E-5,-1.1404691E-4,3.656032E-1,7.361016E-1,7.9170656E-1,7.318814E-1,7.3141384E-1,7.9179037E-1,3.6565393E-1,7.3300207E-1,7.326122E-1,7.9155785E-1,7.219894E-1,7.9092634E-1,7.9352254E-1,7.9169965E-1,-6.520372E-5,1.1704929E-2,3.631576E-1,7.932145E-1,-1.2485875E-4,-5.9231933E-2,7.3055536E-1,3.6278945E-1,7.3481977E-1,7.912126E-1,7.288426E-1,3.6437443E-1,3.3899712E-5,-1.2828983E-4,3.6523268E-1,3.6639637E-1,7.2860575E-1,3.659753E-1,7.297846E-1,3.6471406E-1,7.91264E-1,5.951156E-6,-8.5679196E-5,3.6595592E-1,3.6423814E-1,7.311451E-1,3.2200525E-5,-6.8921618E-6,-5.0678696E-5,9.039955E-5,2.5470916E-4,5.9646396E-3,3.5386486E-4,6.129744E-5,-4.3635932E-6,1.6470423E-5,8.832847E-5,1.0683695E-5,2.5551128E-5,2.689833E-4,-5.819584E-5,-1.9673265E-5,6.179365E-5,-1.8413664E-6,-5.250809E-5,-3.3508886E-3,1.1024636E-4,4.117595E-3,-7.662328E-5,7.6764336E-5,-2.360667E-5,2.0631574E-4,6.8684894E-5,1.2588255E-6,6.604106E-5,-4.8299593E-5,-3.3654259E-3,1.9143234E-4,5.2639436E-5,1.091402E-4,6.2776504E-5,-8.424632E-7,2.3235884E-4,2.4435136E-3,1.2631819E-4,5.6475103E-5,2.7993083E-4,3.8968935E-3,-1.1386797E-5,3.1932348E-5,9.631769E-4,-6.10272E-5,1.8317318E-1,9.6339845E-6,-1.0505679E-4,-3.0473504E-2,1.8166834E-4,-2.9290903E-5,4.8672446E-6,8.502993E-5,-4.277461E-5,1.8113053E-5,3.0622505E-5,1.7153578E-4,3.363706E-5,-2.8342715E-6,7.380804E-4,7.38606E-5,-3.527897E-5,8.5442717E-4,5.8111622E-5,-2.7993687E-5,-1.4132515E-5,-6.5044616E-5,1.732294E-4,-2.0182059E-4,7.7784467E-3,-9.006195E-5,-4.0338116E-5,4.82665E-4,-7.8473124E-5,-1.6050847E-4,-4.9144303E-4,-5.9003032E-5,5.661303E-6,1.9766961E-4,1.1377045E-4,1.6726728E-3,1.2083729E-2,8.318447E-5,5.668724E-6,1.68118E-4,-6.897517E-5,2.2206741E-5,3.131646E-4,1.1608416E-2,1.2286026E-4,-4.947677E-6,1.4301315E-3,5.1401814E-5,-7.814281E-5,-3.438413E-5,1.1830067E-2,-1.16393705E-4,1.6412307E-3,-1.8297722E-4,3.7475524E-4,-2.8636647E-5,1.8947794E-4,-1.5726948E-6],"split_indices":[2,2,1,0,0,3,3,1,2,3,1,3,3,2,0,3,1,3,0,1,0,2,1,0,0,3,3,0,0,1,0,1,1,3,3,2,3,3,1,0,0,1,0,3,2,0,3,2,1,0,2,0,0,3,1,0,3,1,0,1,3,1,3,0,2,2,3,1,1,2,2,1,0,2,1,1,1,1,3,1,3,3,0,0,0,1,3,2,3,3,2,1,3,3,0,3,0,2,0,0,0,1,2,0,0,3,1,3,0,3,1,0,0,1,1,3,1,3,1,0,0,0,1,1,3,0,0,0,0,0,0,0,0,0,0,0,0,0,0,0,0,0,0,0,0,0,0,0,0,0,0,0,0,0,0,0,0,0,0,0,0,0,0,0,0,0,0,0,0,0,0,0,0,0,0,0,0,0,0,0,0,0,0,0,0,0,0,0,0,0,0,0,0,0,0,0,0,0,0,0,0,0,0,0,0,0,0,0,0,0,0,0,0,0,0,0,0,0,0,0,0,0,0,0,0,0,0,0,0],"split_type":[0,0,0,0,0,0,0,0,0,0,0,0,0,0,0,0,0,0,0,0,0,0,0,0,0,0,0,0,0,0,0,0,0,0,0,0,0,0,0,0,0,0,0,0,0,0,0,0,0,0,0,0,0,0,0,0,0,0,0,0,0,0,0,0,0,0,0,0,0,0,0,0,0,0,0,0,0,0,0,0,0,0,0,0,0,0,0,0,0,0,0,0,0,0,0,0,0,0,0,0,0,0,0,0,0,0,0,0,0,0,0,0,0,0,0,0,0,0,0,0,0,0,0,0,0,0,0,0,0,0,0,0,0,0,0,0,0,0,0,0,0,0,0,0,0,0,0,0,0,0,0,0,0,0,0,0,0,0,0,0,0,0,0,0,0,0,0,0,0,0,0,0,0,0,0,0,0,0,0,0,0,0,0,0,0,0,0,0,0,0,0,0,0,0,0,0,0,0,0,0,0,0,0,0,0,0,0,0,0,0,0,0,0,0,0,0,0,0,0,0,0,0,0,0,0,0,0,0,0],"sum_hessian":[1.166915E6,1.084802E6,8.2113E4,9.34306E5,1.50496E5,2.5926E4,5.6187E4,7.85391E5,1.48915E5,5.3248E4,9.7248E4,1.5839E4,1.0087E4,1.3227E4,4.296E4,1.7143E4,7.68248E5,7.2031E4,7.6884E4,4.5927E4,7.321E3,5.82E2,9.6666E4,1.5674E4,1.65E2,3.08E2,9.779E3,1.978E3,1.1249E4,9.906E3,3.3054E4,9.067E3,8.076E3,6.99497E5,6.8751E4,3.3937E4,3.8094E4,7.3779E4,3.105E3,3.6235E4,9.692E3,1.569E3,5.752E3,7.3E1,5.09E2,7.0713E4,2.5953E4,1.543E3,1.4131E4,3E0,1.62E2,2.96E2,1.2E1,7.157E3,2.622E3,1.326E3,6.52E2,9.019E3,2.23E3,9.848E3,5.8E1,3.21E2,3.2733E4,6.628E3,2.439E3,2.6E1,8.05E3,6.63663E5,3.5834E4,6.01E3,6.2741E4,3.3039E4,8.98E2,3.16E3,3.4934E4,5.9615E4,1.4164E4,2.571E3,5.34E2,1.6493E4,1.9742E4,2.22E2,9.47E3,1.055E3,5.14E2,1.43E2,5.609E3,5.6E1,1.7E1,1.6E1,4.93E2,1.6586E4,5.4127E4,9.024E3,1.6929E4,5.4E2,1.003E3,3.814E3,1.0317E4,2E0,1E0,1.44E2,1.8E1,1E1,2E0,1.098E3,6.059E3,8.41E2,1.781E3,1.314E3,1.2E1,5.37E2,1.15E2,5.121E3,3.898E3,4.9E1,2.181E3,1.81E2,9.667E3,6E0,5.2E1,2.02E2,1.19E2,8.849E3,2.3884E4,4.164E3,2.464E3,2.172E3,2.67E2,2.3E1,3E0,1.48E2,7.902E3,6.33263E5,3.04E4,6.793E3,2.9041E4,5.9E3,1.1E2,8.058E3,5.4683E4,9.651E3,2.3388E4,8.05E2,9.3E1,2.996E3,1.64E2,4.711E3,3.0223E4,5.9184E4,4.31E2,5.454E3,8.71E3,9.38E2,1.633E3,1.61E2,3.73E2,5.468E3,1.1025E4,6.057E3,1.3685E4,2.13E2,9E0,7.748E3,1.722E3,1.38E2,5E0,3.072E3,2.537E3,1.1E1,4.5E1,1E0,1.6E1,1.1E1,5E0,1.26E2,3.67E2,1.5267E4,1.319E3,4.5205E4,8.922E3,8.746E3,2.78E2,4.709E3,1.222E4,4.1E1,4.99E2,9.81E2,2.2E1,1.414E3,2.4E3,6.144E3,4.173E3,5.7E1,8.7E1,2E0,1.6E1,9.52E2,1.46E2,2.487E3,3.572E3,7E0,8.34E2,1.269E3,5.12E2,1.301E3,1.3E1,1E0,1.1E1,4.824E3,2.97E2,3.058E3,8.4E2,4.8E1,1E0,1.054E3,1.127E3,1.5E1,1.66E2,2.692E3,6.975E3,1E0,5E0,4.8E1,7.1E1,4.3E1,8.806E3,1.59E2,2.3725E4],"tree_param":{"num_deleted":"0","num_feature":"4","num_nodes":"229","size_leaf_vector":"1"}},{"base_weights":[1.4426719E-7,-5.914569E-7,3.7066617E-5,-1.4730243E-8,-2.0661952E-5,6.583431E-6,7.856904E-5,-6.546357E-6,1.3872943E-6,-5.1487164E-5,8.532551E-6,2.4058238E-5,-5.4457127E-3,6.2769554E-3,3.394488E-5,1.6437017E-6,-2.7819193E-5,3.9934846E-5,2.3786204E-7,-3.2027358E-5,-2.7458605E-4,2.1218855E-4,5.969208E-6,3.5516405E-5,-1.9939884E-3,4.569749E-5,-2.8789919E-2,1.6074697E-2,-1.6883343E-2,1.2685778E-4,1.7141081E-5,-7.7424767E-7,1.04608036E-4,-2.1330075E-5,-3.4041662E-4,7.468487E-7,6.860338E-5,3.2600938E-4,1.9205525E-7,-4.496037E-6,-6.944668E-5,-1.4272223E-3,-1.7937786E-4,1.0351092E-3,-7.5508065E-6,-3.7676335E-5,1.5214649E-5,-5.0874074E-5,9.7492455E-5,-4.7992202E-4,-8.448564E-3,-1.01134254E-4,9.469148E-4,-1.14431496E-4,-4.5972325E-2,-1.6385155E-4,3.977625E-1,-7.465417E-4,-5.7100926E-2,2.2409452E-4,-6.590069E-5,8.289478E-5,-2.0281486E-5,4.514024E-6,-2.296542E-5,-1.9815156E-5,1.4807098E-3,-1.4710848E-5,-5.1358496E-5,-1.283987E-3,-7.7560944E-5,-1.8579587E-3,1.2446495E-6,9.692708E-4,6.694889E-5,2.0974437E-3,2.0314935E-4,5.3338686E-6,-2.307683E-6,1.674228E-4,-8.443956E-6,1.7917754E-4,-7.335104E-5,-2.2131143E-2,-2.7396047E-4,-5.167213E-4,-2.926987E-5,1.9775138E-3,-4.6339002E-5,-2.7709364E-6,-1.1660193E-4,3.9468196E-5,-4.478638E-6,-6.240238E-6,-7.3692813E-3,4.3779935E-4,1.2245467E-5,-6.086242E-5,-1.0809334E-3,5.2618867E-5,-1.6957266E-2,4.218199E-3,-9.2545594E-4,-5.6876563E-2,-1.9743979E-2,-1.164916E-4,-8.3542033E-4,-3.0111608E-3,-2.0794178E-4,-1.396698E-4,-6.846525E-2,3.620154E-5,2.622868E-2,-7.982701E-4,3.8426713E-4,1.0682399E-3,7.545275E-5,-3.5856492E-3,2.2242017E-5,-1.0759207E-5,1.0568935E-5,-2.3863955E-5,1.6903852E-3,-4.6004345E-5,7.0995826E-5,4.6720233E-2,-6.2104705E-4,1.0565997E-5,-2.5301817E-5,-7.3003685E-5,4.178123E-6,1.6990816E-4,-5.849885E-2,6.374728E-5,-1.3756516E-4,-2.9090757E-3,1.2213766E-4,-4.855432E-5,1.5041281E-5,1.188791E-2,1.2458385E-4,4.7135683E-5,1.10918685E-4,5.9008906E-3,-1.5385375E-4,1.7098984E-5,3.5986217E-4,-1.0044432E-5,4.944495E-5,2.8691675E-5,-8.457792E-6,7.404505E-5,2.363171E-4,5.0538914E-5,-1.6112448E-5,8.3315873E-4,-6.984692E-5,-1.0023137E-4,-3.742932E-5,-2.6250258E-5,-5.527536E-2,-6.1721157E-4,-2.7340042E-5,-6.7437984E-5,-2.2817175E-3,-2.3367835E-5,-2.3695466E-3,-7.4687385E-5,4.652844E-3,-6.1519386E-5,6.25831E-6,1.2726116E-6,-3.7952384E-4,1.0346129E-4,2.8394375E-5,-4.7268062E-5,1.6882237E-5,-1.17119234E-4,2.088818E-5,2.6550747E-3,-8.0709636E-2,1.01256104E-4,2.6713288E-3,1.58601E-5,-1.4555953E-4,-3.6714026E-3,1.3043809E-4,-5.7516E-2,-6.1147596E-4,4.3375796E-4,1.1830656E-5,9.0632915E-5,6.1049197E-2,-3.0519783E-2,1.3718142E-5,2.440739E-2,-1.4739103E-5,4.292129E-3,3.3330324E-4,3.426648E-5,2.5639636E-4,4.4979446E-5,-2.2106353E-2,5.4352164E-5,-1.1923654E-5],"categories":[],"categories_nodes":[],"categories_segments":[],"categories_sizes":[],"default_left":[0,0,0,0,0,0,0,0,0,0,0,0,0,0,0,0,0,0,0,0,0,0,0,0,0,0,0,0,0,0,0,0,0,0,0,0,0,0,0,0,0,0,0,0,0,0,0,0,0,0,0,0,0,0,0,0,0,0,0,0,0,0,0,0,0,0,0,0,0,0,0,0,0,0,0,0,0,0,0,0,0,0,0,0,0,0,0,0,0,0,0,0,0,0,0,0,0,0,0,0,0,0,0,0,0,0,0,0,0,0,0,0,0,0,0,0,0,0,0,0,0,0,0,0,0,0,0,0,0,0,0,0,0,0,0,0,0,0,0,0,0,0,0,0,0,0,0,0,0,0,0,0,0,0,0,0,0,0,0,0,0,0,0,0,0,0,0,0,0,0,0,0,0,0,0,0,0,0,0,0,0,0,0,0,0,0,0,0,0,0,0,0,0,0,0,0,0,0,0,0,0,0,0,0,0],"id":3,"left_children":[1,3,5,7,9,11,13,15,17,19,21,23,25,27,29,31,33,35,37,39,41,43,45,47,49,51,53,55,57,59,61,63,65,67,69,71,73,75,77,79,81,83,85,87,-1,89,91,93,95,97,99,-1,101,-1,103,105,-1,107,109,111,113,115,117,119,121,123,125,127,129,131,133,135,137,139,141,143,145,147,149,151,153,155,157,159,161,163,165,167,-1,169,171,173,175,177,179,181,183,-1,185,-1,187,-1,-1,-1,-1,-1,-1,-1,-1,-1,-1,189,191,193,195,197,199,201,203,-1,-1,-1,-1,-1,-1,-1,-1,-1,-1,-1,-1,-1,-1,-1,-1,-1,-1,-1,-1,-1,-1,-1,-1,-1,-1,-1,-1,-1,-1,-1,-1,-1,-1,-1,-1,-1,-1,-1,-1,-1,-1,-1,-1,-1,-1,-1,-1,-1,-1,-1,-1,-1,-1,-1,-1,-1,-1,-1,-1,-1,-1,-1,-1,-1,-1,-1,-1,-1,-1,-1,-1,-1,-1,-1,-1,-1,-1,-1,-1,-1,-1,-1,-1,-1,-1],"loss_changes":[3.16989E-5,1.3243394E-5,2.884183E-5,1.0184634E-5,2.8760298E-5,1.252558E-3,2.6700618E-3,3.424238E-5,4.0569237E-5,6.747921E-5,8.567502E-6,3.030762E-4,5.3854054E-3,1.592878E-2,1.496435E-5,3.5329605E-5,1.1081679E-4,2.9785191E-5,1.3267752E-5,1.4730565E-5,1.3659027E-4,3.689674E-5,6.5420722E-6,6.977477E-5,7.19122E-4,4.727221E-6,3.9364495E-3,3.0376992E-1,1.3586018E-2,2.7529792E-5,1.997988E-5,1.6271324E-5,5.575183E-4,1.0637941E-5,2.7545379E-4,1.0367134E-5,2.2750777E-5,2.6778715E-5,1.1426342E-5,5.5934006E-6,5.896669E-6,2.2622556E-3,5.8370424E-5,4.3915592E-5,0E0,7.807147E-6,6.389938E-6,1.778229E-3,2.2012353E-4,1.5297646E-5,1.0135685E-3,0E0,3.452904E-5,0E0,3.0703098E-4,1.4293429E-6,0E0,1.8889434E-5,3.8743932E-3,4.7678635E-3,1.628435E-4,2.151498E-5,7.8467146E-4,1.0354883E-5,4.111899E-5,7.1071463E-6,2.5701284E-2,1.174133E-5,1.16210085E-5,2.0140564E-2,7.385577E-6,6.599247E-6,7.69578E-6,2.5675824E-4,1.3309931E-5,6.9409405E-5,3.434311E-6,1.9727246E-4,1.1404272E-4,1.1726424E-6,3.6441688E-6,1.5366782E-5,5.758873E-6,3.661796E-3,7.686524E-6,2.8135517E-4,1.09807315E-5,1.2662477E-4,0E0,1.0432581E-6,2.6932361E-5,4.2454058E-6,6.749918E-6,1.6281589E-5,2.4475554E-2,1.142282E-3,3.4641098E-6,0E0,7.89294E-5,0E0,4.6055824E-3,0E0,0E0,0E0,0E0,0E0,0E0,0E0,0E0,0E0,0E0,9.393007E-6,6.36545E-3,4.5375205E-3,2.933485E-3,5.069522E-5,2.1782014E-5,4.1027446E-3,5.6121344E-6,0E0,0E0,0E0,0E0,0E0,0E0,0E0,0E0,0E0,0E0,0E0,0E0,0E0,0E0,0E0,0E0,0E0,0E0,0E0,0E0,0E0,0E0,0E0,0E0,0E0,0E0,0E0,0E0,0E0,0E0,0E0,0E0,0E0,0E0,0E0,0E0,0E0,0E0,0E0,0E0,0E0,0E0,0E0,0E0,0E0,0E0,0E0,0E0,0E0,0E0,0E0,0E0,0E0,0E0,0E0,0E0,0E0,0E0,0E0,0E0,0E0,0E0,0E0,0E0,0E0,0E0,0E0,0E0,0E0,0E0,0E0,0E0,0E0,0E0,0E0,0E0,0E0,0E0,0E0,0E0,0E0,0E0,0E0,0E0,0E0,0E0],"parents":[2147483647,0,0,1,1,2,2,3,3,4,4,5,5,6,6,7,7,8,8,9,9,10,10,11,11,12,12,13,13,14,14,15,15,16,16,17,17,18,18,19,19,20,20,21,21,22,22,23,23,24,24,25,25,26,26,27,27,28,28,29,29,30,30,31,31,32,32,33,33,34,34,35,35,36,36,37,37,38,38,39,39,40,40,41,41,42,42,43,43,45,45,46,46,47,47,48,48,49,49,50,50,52,52,54,54,55,55,57,57,58,58,59,59,60,60,61,61,62,62,63,63,64,64,65,65,66,66,67,67,68,68,69,69,70,70,71,71,72,72,73,73,74,74,75,75,76,76,77,77,78,78,79,79,80,80,81,81,82,82,83,83,84,84,85,85,86,86,87,87,89,89,90,90,91,91,92,92,93,93,94,94,95,95,96,96,98,98,100,100,111,111,112,112,113,113,114,114,115,115,116,116,117,117,118,118],"right_children":[2,4,6,8,10,12,14,16,18,20,22,24,26,28,30,32,34,36,38,40,42,44,46,48,50,52,54,56,58,60,62,64,66,68,70,72,74,76,78,80,82,84,86,88,-1,90,92,94,96,98,100,-1,102,-1,104,106,-1,108,110,112,114,116,118,120,122,124,126,128,130,132,134,136,138,140,142,144,146,148,150,152,154,156,158,160,162,164,166,168,-1,170,172,174,176,178,180,182,184,-1,186,-1,188,-1,-1,-1,-1,-1,-1,-1,-1,-1,-1,190,192,194,196,198,200,202,204,-1,-1,-1,-1,-1,-1,-1,-1,-1,-1,-1,-1,-1,-1,-1,-1,-1,-1,-1,-1,-1,-1,-1,-1,-1,-1,-1,-1,-1,-1,-1,-1,-1,-1,-1,-1,-1,-1,-1,-1,-1,-1,-1,-1,-1,-1,-1,-1,-1,-1,-1,-1,-1,-1,-1,-1,-1,-1,-1,-1,-1,-1,-1,-1,-1,-1,-1,-1,-1,-1,-1,-1,-1,-1,-1,-1,-1,-1,-1,-1,-1,-1,-1,-1,-1,-1],"split_conditions":[7.94472E-1,7.930786E-1,7.299055E-1,7.2800523E-1,7.914004E-1,7.2989506E-1,7.299198E-1,7.913136E-1,7.282593E-1,7.913661E-1,7.914074E-1,7.2988075E-1,7.913661E-1,7.9136837E-1,3.586561E-1,7.2795975E-1,7.2795975E-1,3.6394858E-1,3.6002794E-1,7.9123807E-1,3.6002794E-1,3.6580154E-1,3.6563632E-1,7.9136837E-1,3.5884857E-1,7.9468805E-1,3.5884857E-1,7.9135555E-1,3.5884857E-1,7.9172516E-1,7.913636E-1,7.276147E-1,7.912737E-1,7.2756726E-1,3.64278E-1,3.586561E-1,7.9062897E-1,7.907439E-1,7.912658E-1,7.9062897E-1,3.586561E-1,7.9136837E-1,7.2996783E-1,7.3004097E-1,-7.5508065E-6,7.305352E-1,3.6591586E-1,7.913661E-1,7.917001E-1,7.913608E-1,7.913476E-1,-1.01134254E-4,3.587286E-1,-1.14431496E-4,7.914306E-1,7.9468805E-1,3.977625E-1,7.9138386E-1,7.9448783E-1,7.917195E-1,7.318814E-1,7.2993374E-1,7.9136837E-1,7.257278E-1,3.66488E-1,7.912504E-1,7.9127645E-1,7.913982E-1,3.654787E-1,3.6426383E-1,7.910516E-1,7.9136133E-1,7.909739E-1,3.6399212E-1,3.650746E-1,7.293664E-1,7.301212E-1,7.913525E-1,7.911552E-1,7.208713E-1,3.6091927E-1,7.912625E-1,7.913069E-1,3.5884857E-1,7.2988075E-1,7.297846E-1,7.3375565E-1,7.296842E-1,-4.6339002E-5,7.211056E-1,3.6002794E-1,7.2671264E-1,7.916603E-1,7.250688E-1,3.5884857E-1,3.5884857E-1,3.6002794E-1,-6.086242E-5,7.9138386E-1,5.2618867E-5,7.9136837E-1,4.218199E-3,-9.2545594E-4,-5.6876563E-2,-1.9743979E-2,-1.164916E-4,-8.3542033E-4,-3.0111608E-3,-2.0794178E-4,-1.396698E-4,-6.846525E-2,7.3006177E-1,7.3172414E-1,7.917306E-1,7.917306E-1,7.9114866E-1,3.5884857E-1,3.5884857E-1,7.946063E-1,-1.0759207E-5,1.0568935E-5,-2.3863955E-5,1.6903852E-3,-4.6004345E-5,7.0995826E-5,4.6720233E-2,-6.2104705E-4,1.0565997E-5,-2.5301817E-5,-7.3003685E-5,4.178123E-6,1.6990816E-4,-5.849885E-2,6.374728E-5,-1.3756516E-4,-2.9090757E-3,1.2213766E-4,-4.855432E-5,1.5041281E-5,1.188791E-2,1.2458385E-4,4.7135683E-5,1.10918685E-4,5.9008906E-3,-1.5385375E-4,1.7098984E-5,3.5986217E-4,-1.0044432E-5,4.944495E-5,2.8691675E-5,-8.457792E-6,7.404505E-5,2.363171E-4,5.0538914E-5,-1.6112448E-5,8.3315873E-4,-6.984692E-5,-1.0023137E-4,-3.742932E-5,-2.6250258E-5,-5.527536E-2,-6.1721157E-4,-2.7340042E-5,-6.7437984E-5,-2.2817175E-3,-2.3367835E-5,-2.3695466E-3,-7.4687385E-5,4.652844E-3,-6.1519386E-5,6.25831E-6,1.2726116E-6,-3.7952384E-4,1.0346129E-4,2.8394375E-5,-4.7268062E-5,1.6882237E-5,-1.17119234E-4,2.088818E-5,2.6550747E-3,-8.0709636E-2,1.01256104E-4,2.6713288E-3,1.58601E-5,-1.4555953E-4,-3.6714026E-3,1.3043809E-4,-5.7516E-2,-6.1147596E-4,4.3375796E-4,1.1830656E-5,9.0632915E-5,6.1049197E-2,-3.0519783E-2,1.3718142E-5,2.440739E-2,-1.4739103E-5,4.292129E-3,3.3330324E-4,3.426648E-5,2.5639636E-4,4.4979446E-5,-2.2106353E-2,5.4352164E-5,-1.1923654E-5],"split_indices":[0,0,3,3,2,3,3,0,3,2,2,3,2,2,1,3,3,1,1,2,1,1,1,2,1,0,1,2,1,2,2,3,0,3,1,1,2,0,2,2,1,2,3,3,0,3,1,2,2,2,2,0,1,0,2,0,0,2,0,2,3,3,2,3,1,2,0,0,1,1,2,0,2,1,1,3,3,0,0,3,1,2,2,1,3,3,3,3,0,3,1,3,2,3,1,1,1,0,2,0,2,0,0,0,0,0,0,0,0,0,0,3,3,2,2,2,1,1,0,0,0,0,0,0,0,0,0,0,0,0,0,0,0,0,0,0,0,0,0,0,0,0,0,0,0,0,0,0,0,0,0,0,0,0,0,0,0,0,0,0,0,0,0,0,0,0,0,0,0,0,0,0,0,0,0,0,0,0,0,0,0,0,0,0,0,0,0,0,0,0,0,0,0,0,0,0,0,0,0,0,0,0,0,0,0],"split_type":[0,0,0,0,0,0,0,0,0,0,0,0,0,0,0,0,0,0,0,0,0,0,0,0,0,0,0,0,0,0,0,0,0,0,0,0,0,0,0,0,0,0,0,0,0,0,0,0,0,0,0,0,0,0,0,0,0,0,0,0,0,0,0,0,0,0,0,0,0,0,0,0,0,0,0,0,0,0,0,0,0,0,0,0,0,0,0,0,0,0,0,0,0,0,0,0,0,0,0,0,0,0,0,0,0,0,0,0,0,0,0,0,0,0,0,0,0,0,0,0,0,0,0,0,0,0,0,0,0,0,0,0,0,0,0,0,0,0,0,0,0,0,0,0,0,0,0,0,0,0,0,0,0,0,0,0,0,0,0,0,0,0,0,0,0,0,0,0,0,0,0,0,0,0,0,0,0,0,0,0,0,0,0,0,0,0,0,0,0,0,0,0,0,0,0,0,0,0,0,0,0,0,0,0,0],"sum_hessian":[1.166915E6,1.144118E6,2.2797E4,1.112161E6,3.1957E4,1.3144E4,9.653E3,1.96539E5,9.15622E5,1.5544E4,1.6413E4,1.3103E4,4.1E1,6.8E1,9.585E3,1.41906E5,5.4633E4,2.6511E4,8.89111E5,1.4298E4,1.246E3,2.03E2,1.621E4,1.303E4,7.3E1,3.4E1,7E0,4.8E1,2E1,1.467E3,8.118E3,1.38651E5,3.255E3,5.3523E4,1.11E3,1.1201E4,1.531E4,1.24E2,8.88987E5,8.238E3,6.06E3,9.4E1,1.152E3,4.2E1,1.61E2,2.833E3,1.3377E4,5.443E3,7.587E3,6E1,1.3E1,3E1,4E0,3E0,4E0,4.7E1,1E0,1.5E1,5E0,9.75E2,4.92E2,2.944E3,5.174E3,1.11969E5,2.6682E4,2.986E3,2.69E2,4.3857E4,9.666E3,2.41E2,8.69E2,2E0,1.1199E4,2.7E1,1.5283E4,7E0,1.17E2,2.90809E5,5.98178E5,1.84E2,8.054E3,9.3E1,5.967E3,4E0,9E1,3.54E2,7.98E2,2.2E1,2E1,1.965E3,8.68E2,5.994E3,7.383E3,5.411E3,3.2E1,1.519E3,6.068E3,3.6E1,2.4E1,7E0,6E0,1E0,3E0,2E0,2E0,4.5E1,2E0,2E0,1.3E1,1E0,4E0,9.69E2,6E0,1.87E2,3.05E2,2.1E1,2.923E3,6E1,5.114E3,3.1787E4,8.0182E4,2.6669E4,1.3E1,2.318E3,6.68E2,1.1E1,2.58E2,1.295E4,3.0907E4,6.955E3,2.711E3,2.36E2,5E0,2.59E2,6.1E2,1E0,1E0,2.429E3,8.77E3,1E0,2.6E1,1.0537E4,4.746E3,2E0,5E0,5.4E1,6.3E1,2.15634E5,7.5175E4,9.9028E4,4.9915E5,7.9E1,1.05E2,9.26E2,7.128E3,2.5E1,6.8E1,3.412E3,2.555E3,3E0,1E0,3.7E1,5.3E1,2.83E2,7.1E1,7.97E2,1E0,1.3E1,9E0,2.61E2,1.704E3,6E2,2.68E2,8.83E2,5.111E3,2.458E3,4.925E3,1.063E3,4.348E3,2.9E1,3E0,1.321E3,1.98E2,5.933E3,1.35E2,7E0,1.7E1,1E0,5E0,5.5E1,9.14E2,4E0,2E0,4E0,1.83E2,4E0,3.01E2,3E0,1.8E1,2.382E3,5.41E2,5.1E1,9E0,2.636E3,2.478E3],"tree_param":{"num_deleted":"0","num_feature":"4","num_nodes":"205","size_leaf_vector":"1"}},{"base_weights":[8.736024E-8,-2.7045824E-6,4.6583336E-6,3.9208167E-6,-5.570565E-6,1.3036594E-5,7.007612E-7,-6.5186778E-6,1.49728485E-5,-8.549546E-6,1.1261027E-6,3.0380332E-5,-4.258038E-6,-6.8439685E-6,7.1929767E-6,-2.6484393E-5,1.458963E-5,5.527979E-5,7.3667125E-6,-9.980691E-7,-1.307161E-5,2.31299E-5,-6.306631E-6,3.9422517E-5,-1.4728506E-5,-6.520143E-6,9.1526774E-5,-2.2384047E-5,7.984398E-6,6.3488096E-6,2.4093837E-5,-4.1361265E-5,-1.7786224E-5,2.7038619E-5,-1.0450376E-5,9.582161E-6,7.0997026E-5,-8.569605E-6,3.364071E-5,4.2652186E-6,-2.0272048E-5,9.237596E-5,-1.4089972E-5,-2.6190399E-5,3.436221E-5,-3.5842782E-5,7.427934E-6,1.15332305E-5,6.0552513E-5,-6.776248E-5,5.859881E-6,2.81885E-5,-9.331247E-6,1.5832759E-4,-3.2507155E-6,-3.144057E-5,8.392089E-6,1.4748309E-5,-8.660352E-6,9.031971E-6,-1.2619796E-6,3.5221783E-5,-4.479913E-5,-5.912883E-5,-1.7596562E-5,2.7903583E-4,-1.8503406E-5,1.0172877E-3,2.6685304E-5,-8.687189E-8,-5.2757117E-5,3.831688E-6,2.624432E-4,3.9527316E-5,9.638548E-5,8.2652106E-5,-1.2321064E-5,5.1142295E-5,-3.369356E-5,-5.466442E-6,1.65062E-5,-2.1818437E-6,-4.983748E-5,-6.737143E-5,1.3979786E-4,7.5564305E-5,-1.4644522E-5,5.991051E-5,-4.0504237E-5,5.1386538E-5,-1.6389116E-5,-2.5248495E-5,-1.2592727E-4,-3.2620585E-5,9.079182E-6,-2.4462756E-7,8.0949925E-5,1.6815033E-4,5.365212E-5,1.4739728E-5,-1.1487444E-4,2.7134691E-4,1.8136667E-6,1.9260596E-4,1.9325958E-5,-1.8396104E-5,-6.554886E-7,9.641639E-5,6.00333E-4,-1.7784101E-5,-3.592045E-5,1.3385682E-5,-7.206279E-5,-1.4818378E-6,3.5753696E-5,2.1081923E-5,-1.6869037E-5,1.2806074E-5,3.698651E-6,3.2351778E-5,-4.8019415E-6,3.0773637E-5,1.8153345E-4,6.174767E-5,-5.733308E-5,-3.430133E-5,-7.3212264E-5,1.4485298E-4,-2.311568E-5,2.025337E-5,2.088672E-3,7.694481E-6,-2.4831734E-5,1.2688372E-4,5.8510676E-3,8.1077356E-5,2.1541886E-5,-1.0714661E-5,4.6664416E-5,-5.9300768E-5,1.7437583E-3,8.3257706E-5,-1.2935366E-6,2.802751E-3,-3.4330753E-7,-4.6891626E-5,4.4941484E-5,1.783822E-4,6.3979074E-5,1.2042163E-3,7.2839095E-5,5.173254E-6,-2.294418E-5,4.442494E-5,2.9532213E-4,7.39079E-7,-1.7698902E-4,-2.0802245E-5,1.9862164E-5,2.664254E-5,-2.0497728E-5,3.0409774E-6,-7.431079E-5,-6.6210894E-5,-1.1506257E-5,1.356857E-3,1.2677109E-4,5.8923135E-5,2.0701736E-3,-5.927547E-6,-1.9740877E-5,2.0021222E-5,2.653753E-4,-4.4308003E-5,1.2119928E-4,8.1743456E-5,3.7529673E-5,3.3317494E-5,-5.35171E-5,-4.3878208E-5,-1.3618763E-6,-4.2159452E-5,-3.8306345E-4,-5.0726394E-6,-1.0584097E-4,6.0430568E-5,8.094739E-6,-3.10771E-5,1.603542E-5,7.463652E-5,1.004015E-3,1.5680573E-4,2.0571966E-3,6.916187E-5,4.0154846E-5,-4.0186333E-6,8.3261414E-4,-8.719131E-5,-2.2685836E-4,8.095402E-4,-1.1977022E-4,-1.9724805E-5,3.1302516E-5,9.5688715E-4,3.681651E-5,-1.9245266E-5,6.2753854E-5,-2.2084334E-5,2.8040156E-5,1.6591404E-5,-1.9644249E-5,1.5450211E-4,-1.7055132E-5,-2.6393574E-5,1.2066085E-3,1.3509416E-4,-2.1233618E-5,-4.387225E-5,-2.0161842E-5,9.511927E-4,1.0796277E-5,-3.9867293E-5,-2.0946069E-4,-1.0529453E-5,2.231496E-5,3.2190117E-5,1.02871454E-4,3.22601E-5,-5.718313E-5,-2.0716023E-5,8.107045E-5,8.884883E-6,4.7931324E-5,8.423302E-6,-7.248995E-6,6.958304E-5,-1.610645E-5,-2.9621155E-5,-1.5053748E-6,6.054802E-5,1.3679202E-5,1.6222757E-3,6.97097E-5,-1.1553453E-4,2.9565778E-4,-8.214238E-4,-5.164857E-5],"categories":[],"categories_nodes":[],"categories_segments":[],"categories_sizes":[],"default_left":[0,0,0,0,0,0,0,0,0,0,0,0,0,0,0,0,0,0,0,0,0,0,0,0,0,0,0,0,0,0,0,0,0,0,0,0,0,0,0,0,0,0,0,0,0,0,0,0,0,0,0,0,0,0,0,0,0,0,0,0,0,0,0,0,0,0,0,0,0,0,0,0,0,0,0,0,0,0,0,0,0,0,0,0,0,0,0,0,0,0,0,0,0,0,0,0,0,0,0,0,0,0,0,0,0,0,0,0,0,0,0,0,0,0,0,0,0,0,0,0,0,0,0,0,0,0,0,0,0,0,0,0,0,0,0,0,0,0,0,0,0,0,0,0,0,0,0,0,0,0,0,0,0,0,0,0,0,0,0,0,0,0,0,0,0,0,0,0,0,0,0,0,0,0,0,0,0,0,0,0,0,0,0,0,0,0,0,0,0,0,0,0,0,0,0,0,0,0,0,0,0,0,0,0,0,0,0,0,0,0,0,0,0,0,0,0,0,0,0,0,0,0,0,0,0,0,0,0,0,0,0,0,0,0,0,0,0,0,0,0,0,0,0,0,0,0,0],"id":4,"left_children":[1,3,5,7,9,11,13,15,17,19,21,23,25,27,29,31,33,35,37,39,41,43,45,47,49,51,53,55,57,59,61,63,65,67,69,71,73,75,77,79,81,83,85,87,89,91,93,95,97,99,101,103,105,107,-1,109,111,113,115,117,119,121,123,125,127,129,131,133,135,137,139,141,143,145,147,149,151,153,155,157,159,161,163,-1,165,167,169,171,173,175,177,179,181,183,185,187,189,191,193,195,197,199,201,203,205,207,209,211,213,215,217,219,221,223,225,227,229,231,233,235,237,239,241,243,245,-1,-1,-1,-1,-1,-1,-1,-1,-1,-1,-1,-1,-1,-1,-1,-1,-1,-1,-1,-1,-1,-1,-1,-1,-1,-1,-1,-1,-1,-1,-1,-1,-1,-1,-1,-1,-1,-1,-1,-1,-1,-1,-1,-1,-1,-1,-1,-1,-1,-1,-1,-1,-1,-1,-1,-1,-1,-1,-1,-1,-1,-1,-1,-1,-1,-1,-1,-1,-1,-1,-1,-1,-1,-1,-1,-1,-1,-1,-1,-1,-1,-1,-1,-1,-1,-1,-1,-1,-1,-1,-1,-1,-1,-1,-1,-1,-1,-1,-1,-1,-1,-1,-1,-1,-1,-1,-1,-1,-1,-1,-1,-1,-1,-1,-1,-1,-1,-1,-1,-1,-1,-1],"loss_changes":[1.4892072E-5,1.37557745E-5,1.4671653E-5,2.5238724E-5,1.00880825E-5,4.258064E-5,1.4720466E-5,4.740929E-5,3.2575866E-5,1.1951672E-5,2.5463643E-5,2.891048E-5,1.5401878E-5,3.202981E-5,2.304434E-6,7.480099E-6,1.7045906E-5,1.2114604E-5,3.7428847E-5,1.3298342E-5,2.3508263E-5,2.1779548E-5,4.721251E-5,3.479336E-5,1.2923936E-5,6.7755955E-6,1.03837065E-5,1.8917315E-5,8.007974E-6,3.1417371E-6,5.8924184E-6,9.004936E-6,7.771498E-6,1.2751538E-5,7.961738E-6,6.2776708E-6,1.0024029E-5,1.9042522E-5,3.9773444E-5,1.2266517E-5,1.503919E-5,1.5872565E-5,1.0780572E-5,8.9905725E-6,2.7667218E-5,3.525261E-5,5.253796E-6,2.0809064E-5,2.4931956E-5,1.2867135E-5,9.15936E-6,7.5778635E-6,5.0520325E-6,2.626733E-5,0E0,3.207544E-6,6.2009094E-6,1.7242452E-5,5.018267E-6,2.2895101E-6,4.7719495E-6,4.30021E-6,1.4311386E-6,4.2646934E-6,8.185521E-6,4.1168278E-5,6.03424E-6,5.520981E-5,1.0212885E-5,7.2482376E-6,4.2106778E-5,1.7191904E-6,6.40866E-5,2.62508E-6,1.844563E-5,2.4103309E-5,9.932559E-6,4.3924047E-5,3.4355857E-5,2.2283346E-5,1.7106646E-5,6.5724234E-6,6.6983775E-6,0E0,2.5432764E-5,4.41238E-5,9.5725845E-6,8.5183665E-6,3.852094E-6,1.0083313E-5,1.4847034E-5,1.4709447E-5,8.37088E-5,6.3451685E-6,3.8565145E-6,1.0923522E-5,2.1440881E-5,4.305275E-5,6.6058637E-6,1.8475095E-5,6.5120585E-6,2.7040527E-5,5.335833E-6,3.163658E-5,8.272688E-6,5.38099E-6,1.0750418E-5,5.572092E-6,4.4868182E-5,6.8347704E-6,4.9469527E-6,3.5276273E-5,3.98173E-6,6.143296E-6,5.269403E-6,3.891475E-6,6.0707193E-6,9.173957E-6,2.4382177E-6,6.89482E-6,2.968483E-6,3.2678172E-6,3.1303207E-5,4.7200538E-6,4.114285E-6,0E0,0E0,0E0,0E0,0E0,0E0,0E0,0E0,0E0,0E0,0E0,0E0,0E0,0E0,0E0,0E0,0E0,0E0,0E0,0E0,0E0,0E0,0E0,0E0,0E0,0E0,0E0,0E0,0E0,0E0,0E0,0E0,0E0,0E0,0E0,0E0,0E0,0E0,0E0,0E0,0E0,0E0,0E0,0E0,0E0,0E0,0E0,0E0,0E0,0E0,0E0,0E0,0E0,0E0,0E0,0E0,0E0,0E0,0E0,0E0,0E0,0E0,0E0,0E0,0E0,0E0,0E0,0E0,0E0,0E0,0E0,0E0,0E0,0E0,0E0,0E0,0E0,0E0,0E0,0E0,0E0,0E0,0E0,0E0,0E0,0E0,0E0,0E0,0E0,0E0,0E0,0E0,0E0,0E0,0E0,0E0,0E0,0E0,0E0,0E0,0E0,0E0,0E0,0E0,0E0,0E0,0E0,0E0,0E0,0E0,0E0,0E0,0E0,0E0,0E0,0E0,0E0,0E0,0E0,0E0,0E0,0E0],"parents":[2147483647,0,0,1,1,2,2,3,3,4,4,5,5,6,6,7,7,8,8,9,9,10,10,11,11,12,12,13,13,14,14,15,15,16,16,17,17,18,18,19,19,20,20,21,21,22,22,23,23,24,24,25,25,26,26,27,27,28,28,29,29,30,30,31,31,32,32,33,33,34,34,35,35,36,36,37,37,38,38,39,39,40,40,41,41,42,42,43,43,44,44,45,45,46,46,47,47,48,48,49,49,50,50,51,51,52,52,53,53,55,55,56,56,57,57,58,58,59,59,60,60,61,61,62,62,63,63,64,64,65,65,66,66,67,67,68,68,69,69,70,70,71,71,72,72,73,73,74,74,75,75,76,76,77,77,78,78,79,79,80,80,81,81,82,82,84,84,85,85,86,86,87,87,88,88,89,89,90,90,91,91,92,92,93,93,94,94,95,95,96,96,97,97,98,98,99,99,100,100,101,101,102,102,103,103,104,104,105,105,106,106,107,107,108,108,109,109,110,110,111,111,112,112,113,113,114,114,115,115,116,116,117,117,118,118,119,119,120,120,121,121,122,122,123,123,124,124],"right_children":[2,4,6,8,10,12,14,16,18,20,22,24,26,28,30,32,34,36,38,40,42,44,46,48,50,52,54,56,58,60,62,64,66,68,70,72,74,76,78,80,82,84,86,88,90,92,94,96,98,100,102,104,106,108,-1,110,112,114,116,118,120,122,124,126,128,130,132,134,136,138,140,142,144,146,148,150,152,154,156,158,160,162,164,-1,166,168,170,172,174,176,178,180,182,184,186,188,190,192,194,196,198,200,202,204,206,208,210,212,214,216,218,220,222,224,226,228,230,232,234,236,238,240,242,244,246,-1,-1,-1,-1,-1,-1,-1,-1,-1,-1,-1,-1,-1,-1,-1,-1,-1,-1,-1,-1,-1,-1,-1,-1,-1,-1,-1,-1,-1,-1,-1,-1,-1,-1,-1,-1,-1,-1,-1,-1,-1,-1,-1,-1,-1,-1,-1,-1,-1,-1,-1,-1,-1,-1,-1,-1,-1,-1,-1,-1,-1,-1,-1,-1,-1,-1,-1,-1,-1,-1,-1,-1,-1,-1,-1,-1,-1,-1,-1,-1,-1,-1,-1,-1,-1,-1,-1,-1,-1,-1,-1,-1,-1,-1,-1,-1,-1,-1,-1,-1,-1,-1,-1,-1,-1,-1,-1,-1,-1,-1,-1,-1,-1,-1,-1,-1,-1,-1,-1,-1,-1,-1],"split_conditions":[7.9143786E-1,3.6401367E-1,7.9131585E-1,7.910861E-1,7.914235E-1,7.917001E-1,7.917001E-1,7.9111075E-1,7.9095E-1,7.293144E-1,7.911509E-1,7.327412E-1,3.6624745E-1,3.6580154E-1,3.6785287E-1,7.9089785E-1,7.299867E-1,7.9114455E-1,7.293144E-1,7.9132354E-1,7.9088265E-1,7.2671264E-1,7.299198E-1,3.6423814E-1,7.9113007E-1,7.219894E-1,7.3289716E-1,7.3181736E-1,7.330645E-1,3.6632103E-1,7.9246736E-1,7.909169E-1,7.211056E-1,3.586561E-1,3.6371976E-1,3.6399212E-1,3.6319113E-1,7.2344804E-1,7.9136837E-1,7.911065E-1,7.9118603E-1,7.910262E-1,7.908785E-1,7.9074275E-1,3.6610854E-1,7.297846E-1,7.911673E-1,7.916535E-1,7.9101145E-1,3.6384407E-1,7.911361E-1,7.908309E-1,3.64278E-1,7.3265505E-1,-3.2507155E-6,7.913982E-1,7.922749E-1,3.663626E-1,3.6644208E-1,7.9195195E-1,7.314421E-1,7.3925257E-1,7.219894E-1,7.2652453E-1,7.9062897E-1,3.6364508E-1,3.6259416E-1,7.913387E-1,7.908061E-1,7.91006E-1,7.334398E-1,7.910906E-1,7.907646E-1,7.2029555E-1,3.6349246E-1,7.910906E-1,7.911378E-1,7.913636E-1,7.930786E-1,7.911844E-1,7.9131246E-1,3.6622176E-1,3.6496508E-1,-6.737143E-5,7.9103297E-1,3.6701664E-1,3.6477175E-1,7.263237E-1,7.911378E-1,7.909739E-1,7.291133E-1,3.655771E-1,7.913661E-1,3.6608958E-1,7.9117626E-1,3.631576E-1,7.327002E-1,3.6540943E-1,7.912178E-1,3.638212E-1,7.345173E-1,3.6470643E-1,7.3390704E-1,7.9259086E-1,7.911921E-1,7.361016E-1,7.320432E-1,7.9130465E-1,7.917569E-1,7.238672E-1,7.916173E-1,3.6265576E-1,3.6002794E-1,7.918078E-1,3.676933E-1,7.930786E-1,7.91911E-1,7.920902E-1,7.930786E-1,7.9174644E-1,3.6639637E-1,7.3462546E-1,7.921749E-1,7.918078E-1,7.245613E-1,-3.430133E-5,-7.3212264E-5,1.4485298E-4,-2.311568E-5,2.025337E-5,2.088672E-3,7.694481E-6,-2.4831734E-5,1.2688372E-4,5.8510676E-3,8.1077356E-5,2.1541886E-5,-1.0714661E-5,4.6664416E-5,-5.9300768E-5,1.7437583E-3,8.3257706E-5,-1.2935366E-6,2.802751E-3,-3.4330753E-7,-4.6891626E-5,4.4941484E-5,1.783822E-4,6.3979074E-5,1.2042163E-3,7.2839095E-5,5.173254E-6,-2.294418E-5,4.442494E-5,2.9532213E-4,7.39079E-7,-1.7698902E-4,-2.0802245E-5,1.9862164E-5,2.664254E-5,-2.0497728E-5,3.0409774E-6,-7.431079E-5,-6.6210894E-5,-1.1506257E-5,1.356857E-3,1.2677109E-4,5.8923135E-5,2.0701736E-3,-5.927547E-6,-1.9740877E-5,2.0021222E-5,2.653753E-4,-4.4308003E-5,1.2119928E-4,8.1743456E-5,3.7529673E-5,3.3317494E-5,-5.35171E-5,-4.3878208E-5,-1.3618763E-6,-4.2159452E-5,-3.8306345E-4,-5.0726394E-6,-1.0584097E-4,6.0430568E-5,8.094739E-6,-3.10771E-5,1.603542E-5,7.463652E-5,1.004015E-3,1.5680573E-4,2.0571966E-3,6.916187E-5,4.0154846E-5,-4.0186333E-6,8.3261414E-4,-8.719131E-5,-2.2685836E-4,8.095402E-4,-1.1977022E-4,-1.9724805E-5,3.1302516E-5,9.5688715E-4,3.681651E-5,-1.9245266E-5,6.2753854E-5,-2.2084334E-5,2.8040156E-5,1.6591404E-5,-1.9644249E-5,1.5450211E-4,-1.7055132E-5,-2.6393574E-5,1.2066085E-3,1.3509416E-4,-2.1233618E-5,-4.387225E-5,-2.0161842E-5,9.511927E-4,1.0796277E-5,-3.9867293E-5,-2.0946069E-4,-1.0529453E-5,2.231496E-5,3.2190117E-5,1.02871454E-4,3.22601E-5,-5.718313E-5,-2.0716023E-5,8.107045E-5,8.884883E-6,4.7931324E-5,8.423302E-6,-7.248995E-6,6.958304E-5,-1.610645E-5,-2.9621155E-5,-1.5053748E-6,6.054802E-5,1.3679202E-5,1.6222757E-3,6.97097E-5,-1.1553453E-4,2.9565778E-4,-8.214238E-4,-5.164857E-5],"split_indices":[2,1,0,0,0,2,2,2,2,3,2,3,1,1,1,2,3,0,3,0,0,3,3,1,0,3,3,3,3,1,2,0,3,1,1,1,1,3,2,2,2,2,2,2,1,3,2,2,0,1,0,0,1,3,0,0,0,1,1,2,3,3,3,3,2,1,1,2,0,0,3,0,2,3,1,0,2,2,0,0,2,1,1,0,2,1,1,3,2,2,3,1,2,1,2,1,3,1,0,1,3,1,3,2,0,3,3,0,2,3,0,1,1,0,1,0,0,0,0,0,1,3,2,0,3,0,0,0,0,0,0,0,0,0,0,0,0,0,0,0,0,0,0,0,0,0,0,0,0,0,0,0,0,0,0,0,0,0,0,0,0,0,0,0,0,0,0,0,0,0,0,0,0,0,0,0,0,0,0,0,0,0,0,0,0,0,0,0,0,0,0,0,0,0,0,0,0,0,0,0,0,0,0,0,0,0,0,0,0,0,0,0,0,0,0,0,0,0,0,0,0,0,0,0,0,0,0,0,0,0,0,0,0,0,0,0,0,0,0,0,0,0,0,0,0,0,0],"split_type":[0,0,0,0,0,0,0,0,0,0,0,0,0,0,0,0,0,0,0,0,0,0,0,0,0,0,0,0,0,0,0,0,0,0,0,0,0,0,0,0,0,0,0,0,0,0,0,0,0,0,0,0,0,0,0,0,0,0,0,0,0,0,0,0,0,0,0,0,0,0,0,0,0,0,0,0,0,0,0,0,0,0,0,0,0,0,0,0,0,0,0,0,0,0,0,0,0,0,0,0,0,0,0,0,0,0,0,0,0,0,0,0,0,0,0,0,0,0,0,0,0,0,0,0,0,0,0,0,0,0,0,0,0,0,0,0,0,0,0,0,0,0,0,0,0,0,0,0,0,0,0,0,0,0,0,0,0,0,0,0,0,0,0,0,0,0,0,0,0,0,0,0,0,0,0,0,0,0,0,0,0,0,0,0,0,0,0,0,0,0,0,0,0,0,0,0,0,0,0,0,0,0,0,0,0,0,0,0,0,0,0,0,0,0,0,0,0,0,0,0,0,0,0,0,0,0,0,0,0,0,0,0,0,0,0,0,0,0,0,0,0,0,0,0,0,0,0],"sum_hessian":[1.166915E6,7.24433E5,4.42482E5,2.18747E5,5.05686E5,1.41956E5,3.00526E5,1.12491E5,1.06256E5,3.49993E5,1.55693E5,7.0877E4,7.1079E4,1.38996E5,1.6153E5,5.781E4,5.4681E4,1.6867E4,8.9389E4,1.31088E5,2.18905E5,3.9312E4,1.16381E5,5.9042E4,1.1835E4,6.944E4,1.639E3,6.7869E4,7.1127E4,1.53847E5,7.683E3,2.1328E4,3.6482E4,3.6523E4,1.8158E4,4.317E3,1.255E4,5.5641E4,3.3748E4,1.0297E5,2.8118E4,2.093E3,2.16812E5,7.292E3,3.202E4,3.694E4,7.9441E4,2.5451E4,3.3591E4,3.309E3,8.526E3,5.202E3,6.4238E4,9.61E2,6.78E2,5.2438E4,1.5431E4,5.0575E4,2.0552E4,1.13746E5,4.0101E4,6.615E3,1.068E3,1.2203E4,9.125E3,8.7E1,3.6395E4,1.2E1,3.6511E4,1.4586E4,3.572E3,4.222E3,9.5E1,5.605E3,6.945E3,2.197E3,5.3444E4,2.6786E4,6.962E3,5.7365E4,4.5605E4,1.7445E4,1.0673E4,4.79E2,1.614E3,1.332E3,2.1548E5,1.039E3,6.253E3,2.3977E4,8.043E3,3.3054E4,3.886E3,3.145E3,7.6296E4,2.176E4,3.691E3,2.023E3,3.1568E4,1.203E3,2.106E3,1.27E2,8.399E3,2.65E2,4.937E3,3.1414E4,3.2824E4,8.44E2,1.17E2,1.2954E4,3.9484E4,1.453E4,9.01E2,2.8531E4,2.2044E4,4.445E3,1.6107E4,6.6609E4,4.7137E4,3.82E3,3.6281E4,6.421E3,1.94E2,1.12E2,9.56E2,4.418E3,7.785E3,2.99E2,8.826E3,7.7E1,1E1,7.081E3,2.9314E4,1.1E1,1E0,3.153E3,3.3358E4,1.1885E4,2.701E3,3.56E3,1.2E1,2.55E2,3.967E3,8E0,8.7E1,3.3E2,5.275E3,1.966E3,4.979E3,1.8E1,2.179E3,2.0192E4,3.3252E4,2.607E4,7.16E2,5.614E3,1.348E3,3.5731E4,2.1634E4,3.5799E4,9.806E3,1.6268E4,1.177E3,7.478E3,3.195E3,1.6E1,1.598E3,1.322E3,1E1,7.9501E4,1.35979E5,8.71E2,1.68E2,6.11E3,1.43E2,7.513E3,1.6464E4,3.439E3,4.604E3,1.857E4,1.4484E4,2.932E3,9.54E2,2.286E3,8.59E2,1.434E3,7.4862E4,7.519E3,1.4241E4,3.667E3,2.4E1,2.012E3,1.1E1,1.4687E4,1.6881E4,1.177E3,2.6E1,1.69E3,4.16E2,5.3E1,7.4E1,4.854E3,3.545E3,4.4E1,2.21E2,2.615E3,2.322E3,2.9103E4,2.311E3,1.7201E4,1.5623E4,5.58E2,2.86E2,5.8E1,5.9E1,2.85E2,1.2669E4,2.6241E4,1.3243E4,3.9E1,1.4491E4,7.31E2,1.7E2,2.0672E4,7.859E3,2.0934E4,1.11E3,3.89E3,5.55E2,1.5499E4,6.08E2,5.9921E4,6.688E3,3.2927E4,1.421E4,2.16E3,1.66E3,4.253E3,3.2028E4,2.341E3,4.08E3,1.3E1,1.81E2,6.4E1,4.8E1,6E0,9.5E2],"tree_param":{"num_deleted":"0","num_feature":"4","num_nodes":"247","size_leaf_vector":"1"}},{"base_weights":[2.299747E-8,-2.5325032E-6,2.1043709E-6,3.4621573E-6,-5.6127265E-6,6.2188064E-6,-1.1253397E-6,-4.1319568E-6,1.2769571E-5,-2.2538818E-5,-3.9199545E-6,1.9500198E-5,3.288892E-6,8.021364E-6,-3.355624E-6,-1.6759867E-6,-5.3666252E-5,9.137209E-6,8.475839E-5,-2.3876486E-5,6.778609E-4,-9.568171E-7,-1.3219994E-5,5.964719E-5,1.4629572E-5,-2.5059842E-5,7.3858046E-6,-6.7704686E-6,1.8776496E-5,-1.3307938E-5,-1.5015086E-6,6.892497E-7,-3.4062214E-5,-6.8476504E-5,2.6753874E-5,2.667936E-5,-4.980238E-6,2.760399E-4,5.4354146E-5,-7.2650146E-6,-5.7062258E-5,-9.3538234E-5,4.5442106E-3,2.089535E-5,-2.2552044E-6,-5.108219E-5,-8.681647E-6,-5.0521785E-6,8.699633E-5,8.270056E-6,5.80121E-5,-2.0526844E-5,-1.5234192E-4,6.4614874E-6,3.0684452E-5,-1.5268934E-5,2.4782667E-5,3.4634377E-5,-5.9970284E-6,-5.474837E-6,-3.2901124E-5,2.0024972E-5,-2.9744592E-6,2.8060416E-8,1.00343E-4,-1.1179885E-4,-2.1566404E-5,-1.13760565E-4,-5.5558223E-5,1.3284647E-3,-4.7174867E-6,-6.8365543E-6,3.5921996E-5,-5.6766836E-5,1.6224303E-6,2.3028569E-4,1.2148503E-2,4.7656788E-5,4.429068E-4,-3.3440883E-6,-2.4899066E-4,-5.8805123E-5,4.2313134E-4,6.5618767E-3,-1.2275757E-4,1.3560815E-5,1.8243377E-4,-1.7034104E-6,-5.0161423E-5,-4.74339E-5,-2.4630228E-4,-2.692983E-7,-1.6699636E-5,-5.1224495E-5,6.492002E-5,1.0255288E-4,-2.8552871E-5,6.410327E-5,6.0596353E-6,2.3568652E-4,5.119735E-5,-1.116484E-5,-4.9270813E-5,-8.659086E-4,-5.927112E-5,2.4508897E-6,1.4137672E-5,5.8949E-5,-2.7292183E-6,-4.8844195E-6,-3.157959E-5,1.9257755E-5,5.8124046E-4,1.9324854E-5,9.464523E-5,-1.7236527E-4,1.0285503E-5,1.0344487E-5,-1.6738828E-5,-1.6508666E-5,-7.12527E-5,1.8528915E-5,1.9665954E-3,-1.6604357E-5,-1.0915279E-6,-1.0081296E-6,5.024587E-5,6.1166626E-5,1.3048832E-3,9.03404E-5,-2.8213804E-5,-6.4096894E-5,3.8670587E-6,7.966245E-3,-8.7655586E-5,3.2441723E-5,-5.9389113E-5,2.6871614E-5,9.105019E-5,-6.1867715E-5,2.4272678E-4,1.5625685E-5,-1.440836E-5,1.8485752E-4,8.073168E-3,9.089052E-5,-2.0583497E-5,2.5997972E-3,2.9262621E-5,1.6509811E-4,-5.9350864E-6,4.2031174E-5,-9.5024763E-4,-3.0659885E-5,-7.483513E-5,-2.1635457E-4,4.6870094E-3,-1.7702386E-4,7.7145305E-3,-1.2613567E-4,1.7337125E-5,1.046015E-3,6.783075E-5,-2.2219037E-6,4.748653E-5,-1.6223548E-4,-2.3537885E-5,-8.142722E-5,-3.545801E-5,5.8592883E-5,-7.522736E-3,-1.5126594E-6,5.403836E-4,-2.7660026E-5,5.5861296E-6,5.1049265E-4,3.350737E-5,1.2879018E-4,2.4963414E-5,5.172133E-5,1.3870453E-3,1.6377619E-5,-2.8215036E-6,9.549265E-4,1.403112E-4,4.48094E-5,2.2662232E-4,3.5684392E-5,-1.637407E-5,-7.72463E-5,-3.1699965E-5,1.4323284E-4,-1.9390708E-2,6.783426E-6,-2.4170054E-6,1.964081E-5,1.61391E-6,5.4291784E-5,6.432663E-4,-1.05689915E-5,1.210481E-4,3.0455052E-5,-1.4435364E-5,-2.5634476E-5,-1.0299478E-4,2.48121E-5,-1.3451774E-4,2.8846195E-4,1.7771124E-3,4.8982834E-6,7.29634E-5,1.0235922E-3,4.2361346E-5,-5.4351165E-4,-6.775801E-6,-2.179283E-6,4.7900896E-5,5.9417425E-6,8.701253E-5,9.554656E-6,-2.3623936E-5,-5.5790497E-5,7.173694E-7,-8.022997E-5,-3.471631E-6,3.5634454E-5,-1.5424344E-5,-4.0995135E-5,5.9920256E-3,-5.7783443E-5,-4.464162E-6,1.3785388E-5,-5.3027275E-6],"categories":[],"categories_nodes":[],"categories_segments":[],"categories_sizes":[],"default_left":[0,0,0,0,0,0,0,0,0,0,0,0,0,0,0,0,0,0,0,0,0,0,0,0,0,0,0,0,0,0,0,0,0,0,0,0,0,0,0,0,0,0,0,0,0,0,0,0,0,0,0,0,0,0,0,0,0,0,0,0,0,0,0,0,0,0,0,0,0,0,0,0,0,0,0,0,0,0,0,0,0,0,0,0,0,0,0,0,0,0,0,0,0,0,0,0,0,0,0,0,0,0,0,0,0,0,0,0,0,0,0,0,0,0,0,0,0,0,0,0,0,0,0,0,0,0,0,0,0,0,0,0,0,0,0,0,0,0,0,0,0,0,0,0,0,0,0,0,0,0,0,0,0,0,0,0,0,0,0,0,0,0,0,0,0,0,0,0,0,0,0,0,0,0,0,0,0,0,0,0,0,0,0,0,0,0,0,0,0,0,0,0,0,0,0,0,0,0,0,0,0,0,0,0,0,0,0,0,0,0,0,0,0,0,0,0,0,0,0,0,0,0,0,0,0,0,0,0,0,0,0,0,0],"id":5,"left_children":[1,3,5,7,9,11,13,15,17,19,21,23,25,27,29,31,33,35,37,39,41,43,45,47,49,51,53,55,57,59,61,63,65,67,69,71,73,75,77,79,81,-1,83,85,87,89,91,93,95,97,99,101,103,105,107,109,111,113,115,117,119,121,123,125,127,-1,129,-1,131,133,-1,135,137,139,141,143,-1,145,147,149,151,153,155,157,-1,159,161,163,165,167,169,171,173,-1,175,177,-1,179,181,183,185,187,189,191,-1,193,195,197,199,201,203,205,207,209,211,213,215,217,219,221,223,225,227,229,231,-1,-1,-1,-1,-1,-1,-1,-1,-1,-1,-1,-1,-1,-1,-1,-1,-1,-1,-1,-1,-1,-1,-1,-1,-1,-1,-1,-1,-1,-1,-1,-1,-1,-1,-1,-1,-1,-1,-1,-1,-1,-1,-1,-1,-1,-1,-1,-1,-1,-1,-1,-1,-1,-1,-1,-1,-1,-1,-1,-1,-1,-1,-1,-1,-1,-1,-1,-1,-1,-1,-1,-1,-1,-1,-1,-1,-1,-1,-1,-1,-1,-1,-1,-1,-1,-1,-1,-1,-1,-1,-1,-1,-1,-1,-1,-1,-1,-1,-1,-1,-1,-1,-1,-1,-1,-1,-1,-1],"loss_changes":[6.2067743E-6,9.671913E-6,8.54604E-6,1.2566528E-5,9.913795E-6,1.1005485E-5,7.349995E-6,1.1910761E-5,2.0888045E-5,2.9489265E-5,8.668217E-6,9.994206E-6,2.6911282E-5,1.12366815E-5,5.3451295E-6,7.145602E-6,5.510401E-6,1.883345E-5,2.2300103E-5,1.7308737E-5,1.79375E-4,6.7682977E-6,1.3059632E-5,9.785619E-6,1.2576328E-5,1.6877846E-5,4.359651E-6,7.97418E-6,1.6066428E-5,6.981416E-6,7.742319E-6,5.7281436E-6,6.1648943E-6,2.2786608E-6,2.9502226E-5,1.0505037E-5,1.4408325E-5,2.8293364E-4,8.597635E-6,1.9832587E-5,8.790714E-6,0E0,9.4969364E-5,1.584909E-5,5.952169E-6,5.7822217E-6,4.5779025E-6,5.314725E-6,6.9899943E-6,4.9064643E-6,7.0445167E-6,7.6023653E-6,6.675937E-5,5.994848E-6,7.295823E-6,3.96787E-6,1.938814E-5,2.290689E-5,4.3241173E-5,5.791128E-6,8.166589E-6,4.5504214E-5,5.8652954E-6,4.4939666E-6,2.6959777E-5,0E0,4.0723676E-6,0E0,1.5432897E-6,1.604965E-4,0E0,1.5134387E-5,1.3259643E-5,7.2944185E-6,8.39006E-6,1.855587E-4,0E0,9.61094E-6,4.9886294E-5,8.9884525E-6,6.820302E-5,4.7065478E-6,1.0462827E-4,5.5738958E-5,0E0,6.754135E-6,5.7430043E-5,5.677646E-6,7.646665E-6,3.2486205E-6,3.3100467E-4,2.2266313E-5,8.488213E-6,0E0,9.136682E-6,6.971226E-6,0E0,2.472847E-5,3.5047353E-6,1.4614528E-5,6.2809268E-6,5.2019886E-6,3.409421E-6,2.171298E-3,0E0,2.697533E-6,4.6055447E-6,1.13536835E-5,3.4374164E-6,4.832115E-6,3.866481E-6,5.3407457E-6,2.1195157E-5,1.5373902E-5,2.4610406E-4,8.745096E-5,6.817442E-6,4.562144E-6,3.436785E-6,6.1597684E-6,2.3667435E-6,9.076535E-6,9.7222626E-5,1.3867584E-5,1.2580249E-5,0E0,0E0,0E0,0E0,0E0,0E0,0E0,0E0,0E0,0E0,0E0,0E0,0E0,0E0,0E0,0E0,0E0,0E0,0E0,0E0,0E0,0E0,0E0,0E0,0E0,0E0,0E0,0E0,0E0,0E0,0E0,0E0,0E0,0E0,0E0,0E0,0E0,0E0,0E0,0E0,0E0,0E0,0E0,0E0,0E0,0E0,0E0,0E0,0E0,0E0,0E0,0E0,0E0,0E0,0E0,0E0,0E0,0E0,0E0,0E0,0E0,0E0,0E0,0E0,0E0,0E0,0E0,0E0,0E0,0E0,0E0,0E0,0E0,0E0,0E0,0E0,0E0,0E0,0E0,0E0,0E0,0E0,0E0,0E0,0E0,0E0,0E0,0E0,0E0,0E0,0E0,0E0,0E0,0E0,0E0,0E0,0E0,0E0,0E0,0E0,0E0,0E0,0E0,0E0,0E0,0E0,0E0,0E0],"parents":[2147483647,0,0,1,1,2,2,3,3,4,4,5,5,6,6,7,7,8,8,9,9,10,10,11,11,12,12,13,13,14,14,15,15,16,16,17,17,18,18,19,19,20,20,21,21,22,22,23,23,24,24,25,25,26,26,27,27,28,28,29,29,30,30,31,31,32,32,33,33,34,34,35,35,36,36,37,37,38,38,39,39,40,40,42,42,43,43,44,44,45,45,46,46,47,47,48,48,49,49,50,50,51,51,52,52,53,53,54,54,55,55,56,56,57,57,58,58,59,59,60,60,61,61,62,62,63,63,64,64,66,66,68,68,69,69,71,71,72,72,73,73,74,74,75,75,77,77,78,78,79,79,80,80,81,81,82,82,83,83,85,85,86,86,87,87,88,88,89,89,90,90,91,91,92,92,94,94,95,95,97,97,98,98,99,99,100,100,101,101,102,102,103,103,105,105,106,106,107,107,108,108,109,109,110,110,111,111,112,112,113,113,114,114,115,115,116,116,117,117,118,118,119,119,120,120,121,121,122,122,123,123,124,124],"right_children":[2,4,6,8,10,12,14,16,18,20,22,24,26,28,30,32,34,36,38,40,42,44,46,48,50,52,54,56,58,60,62,64,66,68,70,72,74,76,78,80,82,-1,84,86,88,90,92,94,96,98,100,102,104,106,108,110,112,114,116,118,120,122,124,126,128,-1,130,-1,132,134,-1,136,138,140,142,144,-1,146,148,150,152,154,156,158,-1,160,162,164,166,168,170,172,174,-1,176,178,-1,180,182,184,186,188,190,192,-1,194,196,198,200,202,204,206,208,210,212,214,216,218,220,222,224,226,228,230,232,-1,-1,-1,-1,-1,-1,-1,-1,-1,-1,-1,-1,-1,-1,-1,-1,-1,-1,-1,-1,-1,-1,-1,-1,-1,-1,-1,-1,-1,-1,-1,-1,-1,-1,-1,-1,-1,-1,-1,-1,-1,-1,-1,-1,-1,-1,-1,-1,-1,-1,-1,-1,-1,-1,-1,-1,-1,-1,-1,-1,-1,-1,-1,-1,-1,-1,-1,-1,-1,-1,-1,-1,-1,-1,-1,-1,-1,-1,-1,-1,-1,-1,-1,-1,-1,-1,-1,-1,-1,-1,-1,-1,-1,-1,-1,-1,-1,-1,-1,-1,-1,-1,-1,-1,-1,-1,-1,-1],"split_conditions":[7.912794E-1,7.910433E-1,7.9147047E-1,7.911892E-1,3.6313322E-1,7.9114074E-1,3.6514145E-1,7.306882E-1,3.6498338E-1,7.3925257E-1,3.6509463E-1,3.638014E-1,3.64278E-1,7.290853E-1,7.912504E-1,3.646973E-1,7.314866E-1,7.298623E-1,7.9122734E-1,7.290574E-1,7.912256E-1,7.908847E-1,7.2800523E-1,7.9093814E-1,7.3045754E-1,3.6426383E-1,7.9146206E-1,7.9259086E-1,7.310963E-1,7.9118294E-1,7.913045E-1,3.6465353E-1,7.908727E-1,7.9088265E-1,3.6217484E-1,7.260319E-1,3.6234704E-1,3.6554268E-1,7.94229E-1,7.912737E-1,7.9352254E-1,-9.3538234E-5,7.91252E-1,3.6502495E-1,7.9127645E-1,7.2795975E-1,7.3081434E-1,7.9133564E-1,7.298424E-1,7.9128563E-1,7.9128563E-1,7.3055536E-1,7.2800523E-1,7.915319E-1,7.915037E-1,7.922749E-1,3.6511618E-1,7.307266E-1,7.311815E-1,7.9164886E-1,3.661499E-1,7.329485E-1,7.9138386E-1,7.910366E-1,7.9102427E-1,-1.1179885E-4,7.9089147E-1,-1.13760565E-4,3.648745E-1,7.3166203E-1,-4.7174867E-6,3.6335683E-1,7.914783E-1,7.932838E-1,7.311451E-1,7.3235613E-1,1.2148503E-2,7.9101145E-1,3.6506656E-1,7.9074275E-1,7.2795975E-1,7.912625E-1,7.912074E-1,7.922455E-1,-1.2275757E-4,7.211056E-1,3.650376E-1,7.912737E-1,7.2800523E-1,7.911603E-1,7.912737E-1,7.932838E-1,7.324838E-1,-5.1224495E-5,7.9133916E-1,7.913588E-1,-2.8552871E-5,3.66488E-1,7.909739E-1,7.3055536E-1,7.911378E-1,7.911703E-1,7.312455E-1,7.2795975E-1,-5.927112E-5,7.9136634E-1,7.324838E-1,7.914983E-1,7.932145E-1,3.6196408E-1,7.286902E-1,3.649971E-1,7.946042E-1,7.9448783E-1,7.3074967E-1,7.9136837E-1,7.9448783E-1,3.6755875E-1,7.9089147E-1,7.290574E-1,7.3195416E-1,3.661717E-1,3.6755875E-1,7.299867E-1,7.9150903E-1,-1.0081296E-6,5.024587E-5,6.1166626E-5,1.3048832E-3,9.03404E-5,-2.8213804E-5,-6.4096894E-5,3.8670587E-6,7.966245E-3,-8.7655586E-5,3.2441723E-5,-5.9389113E-5,2.6871614E-5,9.105019E-5,-6.1867715E-5,2.4272678E-4,1.5625685E-5,-1.440836E-5,1.8485752E-4,8.073168E-3,9.089052E-5,-2.0583497E-5,2.5997972E-3,2.9262621E-5,1.6509811E-4,-5.9350864E-6,4.2031174E-5,-9.5024763E-4,-3.0659885E-5,-7.483513E-5,-2.1635457E-4,4.6870094E-3,-1.7702386E-4,7.7145305E-3,-1.2613567E-4,1.7337125E-5,1.046015E-3,6.783075E-5,-2.2219037E-6,4.748653E-5,-1.6223548E-4,-2.3537885E-5,-8.142722E-5,-3.545801E-5,5.8592883E-5,-7.522736E-3,-1.5126594E-6,5.403836E-4,-2.7660026E-5,5.5861296E-6,5.1049265E-4,3.350737E-5,1.2879018E-4,2.4963414E-5,5.172133E-5,1.3870453E-3,1.6377619E-5,-2.8215036E-6,9.549265E-4,1.403112E-4,4.48094E-5,2.2662232E-4,3.5684392E-5,-1.637407E-5,-7.72463E-5,-3.1699965E-5,1.4323284E-4,-1.9390708E-2,6.783426E-6,-2.4170054E-6,1.964081E-5,1.61391E-6,5.4291784E-5,6.432663E-4,-1.05689915E-5,1.210481E-4,3.0455052E-5,-1.4435364E-5,-2.5634476E-5,-1.0299478E-4,2.48121E-5,-1.3451774E-4,2.8846195E-4,1.7771124E-3,4.8982834E-6,7.29634E-5,1.0235922E-3,4.2361346E-5,-5.4351165E-4,-6.775801E-6,-2.179283E-6,4.7900896E-5,5.9417425E-6,8.701253E-5,9.554656E-6,-2.3623936E-5,-5.5790497E-5,7.173694E-7,-8.022997E-5,-3.471631E-6,3.5634454E-5,-1.5424344E-5,-4.0995135E-5,5.9920256E-3,-5.7783443E-5,-4.464162E-6,1.3785388E-5,-5.3027275E-6],"split_indices":[0,0,0,2,1,2,1,3,1,3,1,1,1,3,2,1,3,3,2,3,0,2,3,2,3,1,0,2,3,2,2,1,2,0,1,3,1,1,2,0,2,0,0,1,0,3,3,0,3,0,0,3,3,2,2,0,1,3,3,0,1,3,2,0,0,0,2,0,1,3,0,1,2,2,3,3,0,0,1,2,3,2,0,2,0,3,1,0,3,0,0,2,3,0,0,0,0,1,2,3,2,2,3,3,0,0,3,2,2,1,3,1,2,0,3,2,0,1,2,3,3,1,1,3,2,0,0,0,0,0,0,0,0,0,0,0,0,0,0,0,0,0,0,0,0,0,0,0,0,0,0,0,0,0,0,0,0,0,0,0,0,0,0,0,0,0,0,0,0,0,0,0,0,0,0,0,0,0,0,0,0,0,0,0,0,0,0,0,0,0,0,0,0,0,0,0,0,0,0,0,0,0,0,0,0,0,0,0,0,0,0,0,0,0,0,0,0,0,0,0,0,0,0,0,0,0,0,0,0,0,0,0,0],"split_type":[0,0,0,0,0,0,0,0,0,0,0,0,0,0,0,0,0,0,0,0,0,0,0,0,0,0,0,0,0,0,0,0,0,0,0,0,0,0,0,0,0,0,0,0,0,0,0,0,0,0,0,0,0,0,0,0,0,0,0,0,0,0,0,0,0,0,0,0,0,0,0,0,0,0,0,0,0,0,0,0,0,0,0,0,0,0,0,0,0,0,0,0,0,0,0,0,0,0,0,0,0,0,0,0,0,0,0,0,0,0,0,0,0,0,0,0,0,0,0,0,0,0,0,0,0,0,0,0,0,0,0,0,0,0,0,0,0,0,0,0,0,0,0,0,0,0,0,0,0,0,0,0,0,0,0,0,0,0,0,0,0,0,0,0,0,0,0,0,0,0,0,0,0,0,0,0,0,0,0,0,0,0,0,0,0,0,0,0,0,0,0,0,0,0,0,0,0,0,0,0,0,0,0,0,0,0,0,0,0,0,0,0,0,0,0,0,0,0,0,0,0,0,0,0,0,0,0,0,0,0,0,0,0],"sum_hessian":[1.166915E6,5.23798E5,6.43117E5,1.77789E5,3.46009E5,2.82821E5,3.60296E5,9.7906E4,7.9883E4,3.1457E4,3.14552E5,5.1114E4,2.31707E5,7.063E4,2.89666E5,9.3282E4,4.624E3,7.6047E4,3.836E3,3.1398E4,5.9E1,2.38548E5,7.6004E4,5.529E3,4.5585E4,2.9257E4,2.0245E5,2.9735E4,4.0895E4,4.5489E4,2.44177E5,8.6934E4,6.348E3,3.905E3,7.19E2,3.391E4,4.2137E4,5.25E2,3.311E3,2.0925E4,1.0473E4,5E1,9E0,1.3378E4,2.2517E5,8.134E3,6.787E4,1.643E3,3.886E3,3.9758E4,5.827E3,2.8252E4,1.005E3,1.94726E5,7.724E3,2.3426E4,6.309E3,2.4934E4,1.5961E4,3.2498E4,1.2991E4,1.5637E4,2.2854E5,8.6362E4,5.72E2,8.78E2,5.47E3,8.65E2,3.04E3,1.6E1,7.03E2,7.33E3,2.658E4,4.764E3,3.7373E4,5.24E2,1E0,3.256E3,5.5E1,2.0592E4,3.33E2,1.0436E4,3.7E1,6E0,3E0,1.2798E4,5.8E2,2.22607E5,2.563E3,7.986E3,1.48E2,3.3121E4,3.4749E4,9.9E2,6.53E2,3.425E3,4.61E2,1.513E3,3.8245E4,2.14E2,5.613E3,2.1312E4,6.94E3,1.15E2,8.9E2,1.27902E5,6.6824E4,4.184E3,3.54E3,1.4314E4,9.112E3,6.248E3,6.1E1,1.9867E4,5.067E3,1.422E3,1.4539E4,1.3516E4,1.8982E4,9.102E3,3.889E3,1.5626E4,1.1E1,2.7739E4,2.00801E5,8.4617E4,1.745E3,5.55E2,1.7E1,3.06E2,5.164E3,2.658E3,3.82E2,2E0,1.4E1,4.195E3,3.135E3,2.2833E4,3.747E3,4.685E3,7.9E1,1.9948E4,1.7425E4,5.22E2,2E0,1.993E3,1.263E3,8E0,4.7E1,3.11E2,2.0281E4,2.36E2,9.7E1,3.788E3,6.648E3,3.3E1,4E0,1E0,5E0,3.36E2,1.2462E4,6.7E1,5.13E2,2.20286E5,2.321E3,4.91E2,2.072E3,2.079E3,5.907E3,1.43E2,5E0,3.3046E4,7.5E1,2.3293E4,1.1456E4,4.2E1,6.11E2,2.559E3,8.66E2,1.5E3,1.3E1,1.7691E4,2.0554E4,2.4E1,1.9E2,5.417E3,1.96E2,2.132E3,1.918E4,2.676E3,4.264E3,1.1E2,5E0,6.7672E4,6.023E4,4.6424E4,2.04E4,4.152E3,3.2E1,3.33E3,2.1E2,3.045E3,1.1269E4,8.413E3,6.99E2,6.031E3,2.17E2,5E1,1.1E1,1.5657E4,4.21E3,2.69E2,4.798E3,4.38E2,9.84E2,1.0921E4,3.618E3,1.2783E4,7.33E2,3.939E3,1.5043E4,2.774E3,6.328E3,3.434E3,4.55E2,1.0391E4,5.235E3,8E0,3E0,6.315E3,2.1424E4,4.43E4,1.56501E5],"tree_param":{"num_deleted":"0","num_feature":"4","num_nodes":"233","size_leaf_vector":"1"}},{"base_weights":[2.604778E-8,-1.8501643E-5,3.9482225E-7,4.632656E-6,-4.66066E-5,2.5535456E-7,5.407352E-5,3.232205E-5,-1.9681593E-5,-1.5098523E-4,-3.1296106E-5,3.1657078E-7,-1.9985261E-4,-7.841002E-5,2.2059462E-4,-2.1971418E-6,2.9519046E-4,-1.6249256E-5,-2.0480838E-4,-2.3399078E-4,-7.59181E-5,-1.0172534E-4,-1.33741405E-5,-2.8288114E-5,4.2656305E-7,-4.0656375E-4,1.0434295E-4,4.0716777E-6,-5.9204428E-3,2.737464E-2,-2.9650295E-5,2.699991E-5,-4.1576975E-5,1.825579E-3,4.8777267E-5,-1.7757835E-5,8.0489245E-4,-1.01277896E-4,-4.0648662E-4,-1.0159663E-4,1.6513684E-4,-1.1576758E-4,4.9515156E-4,5.3110733E-5,-7.118207E-5,-3.625752E-5,3.503606E-5,7.9100836E-8,8.1884755E-6,-7.543589E-4,2.325547E-5,-1.5111982E-4,1.6841381E-4,-1.2835105E-4,1.1135749E-4,-1.008573E-4,-1.2259913E-2,4.95681E-2,-1.3609827E-2,-2.1789155E-4,2.1815862E-4,1.9566325E-5,1.7140621E-3,1.7635259E-5,-5.914855E-5,-2.3858779E-4,2.7501856E-3,2.9120976E-3,3.888785E-5,-8.1177925E-5,-8.378984E-6,3.6205323E-3,-1.20288736E-4,-8.10231E-6,-2.6373065E-4,-1.785318E-3,-1.1665745E-4,-1.5527234E-4,-3.2522286E-5,6.8813044E-4,-1.2432341E-5,-1.7079689E-4,-2.494433E-5,3.14112E-3,-3.309655E-5,-3.306229E-6,1.7574542E-4,-1.4508798E-4,-5.2294276E-5,-3.248697E-5,-1.3320964E-4,1.0810798E-3,-1.4211801E-5,1.6480234E-7,-5.2533724E-5,3.4429145E-4,7.6213714E-6,-8.003199E-5,-2.293391E-3,3.325333E-4,9.7444965E-5,-1.4206776E-6,-4.634308E-3,6.471971E-4,2.349143E-8,-2.8942145E-2,-7.697475E-3,-1.2134836E-4,1.9869712E-1,-2.0670182E-5,-3.969869E-3,6.3909835E-4,4.353902E-5,2.5860732E-5,-1.2191339E-4,-2.4113384E-5,7.5160176E-3,-1.4333044E-4,5.9337995E-5,-7.3597716E-5,4.748301E-5,-1.8085799E-3,-6.185335E-5,5.297171E-4,3.65582E-3,3.874888E-6,7.901709E-4,-1.2843883E-4,-3.973594E-5,-1.5222919E-5,5.8595793E-5,-1.3238302E-4,5.5631814E-3,-1.05652376E-4,2.24974E-4,-2.0748872E-4,-4.505136E-4,-2.0871469E-4,-2.5923161E-3,-1.0847051E-3,-9.422806E-5,-1.138498E-4,-1.0783089E-3,3.71255E-5,-9.897568E-5,1.3861802E-5,3.830097E-3,-1.3494439E-4,-1.0338938E-3,5.0004036E-4,-4.939938E-5,1.1384335E-2,-1.3013836E-4,2.115333E-4,-1.9838524E-4,2.8062885E-4,-1.949571E-5,5.3487E-4,8.0228936E-5,-7.0451264E-5,-1.2540617E-3,-1.2411808E-5,-7.282401E-5,-2.7832005E-4,-3.089007E-5,-2.8908593E-4,6.754247E-7,4.1809915E-5,2.577602E-3,4.3590376E-6,-5.4737046E-7,1.0871842E-5,-3.249824E-4,2.0358488E-3,-3.3909313E-5,7.052946E-6,2.002404E-4,-2.6609472E-3,-4.4303053E-4,7.626741E-5,6.1606575E-4,-5.299814E-5,4.3666284E-4,-2.0225847E-2,-6.931043E-4,8.4153103E-4,5.409166E-4,-2.875512E-4,8.330293E-6,-7.180467E-5,-1.5308784E-2,-2.4876092E-4,2.5769422E-4,1.5759803E-3,-7.822765E-3,3.9195776E-5,1.4731773E-3,1.5228825E-4,-1.0689765E-4],"categories":[],"categories_nodes":[],"categories_segments":[],"categories_sizes":[],"default_left":[0,0,0,0,0,0,0,0,0,0,0,0,0,0,0,0,0,0,0,0,0,0,0,0,0,0,0,0,0,0,0,0,0,0,0,0,0,0,0,0,0,0,0,0,0,0,0,0,0,0,0,0,0,0,0,0,0,0,0,0,0,0,0,0,0,0,0,0,0,0,0,0,0,0,0,0,0,0,0,0,0,0,0,0,0,0,0,0,0,0,0,0,0,0,0,0,0,0,0,0,0,0,0,0,0,0,0,0,0,0,0,0,0,0,0,0,0,0,0,0,0,0,0,0,0,0,0,0,0,0,0,0,0,0,0,0,0,0,0,0,0,0,0,0,0,0,0,0,0,0,0,0,0,0,0,0,0,0,0,0,0,0,0,0,0,0,0,0,0,0,0,0,0,0,0,0,0,0,0,0,0,0,0,0,0,0,0,0,0,0,0,0,0,0,0,0,0,0,0],"id":6,"left_children":[1,3,5,7,9,11,13,15,17,19,21,23,25,27,29,31,33,35,-1,37,39,41,43,45,47,49,51,53,55,57,59,61,63,65,67,69,71,73,75,77,79,81,83,85,87,89,91,93,95,97,-1,-1,99,101,103,-1,105,107,-1,109,111,113,115,117,119,121,123,-1,125,127,129,131,-1,133,135,137,139,141,143,145,-1,147,149,151,153,155,157,159,161,163,165,167,-1,169,171,173,175,-1,177,179,-1,181,183,185,187,-1,189,-1,-1,191,193,195,197,-1,-1,-1,-1,-1,-1,-1,-1,-1,-1,-1,-1,-1,-1,-1,-1,-1,-1,-1,-1,-1,-1,-1,-1,-1,-1,-1,-1,-1,-1,-1,-1,-1,-1,-1,-1,-1,-1,-1,-1,-1,-1,-1,-1,-1,-1,-1,-1,-1,-1,-1,-1,-1,-1,-1,-1,-1,-1,-1,-1,-1,-1,-1,-1,-1,-1,-1,-1,-1,-1,-1,-1,-1,-1,-1,-1,-1,-1,-1,-1,-1,-1,-1,-1,-1,-1],"loss_changes":[7.973007E-6,1.4806959E-5,8.565556E-6,8.410834E-6,1.6426815E-5,1.397935E-5,6.542906E-5,5.300191E-5,4.2234697E-6,8.175986E-6,1.1318321E-5,3.5894057E-6,2.1987755E-5,7.960581E-4,8.929654E-3,5.9385607E-6,2.5559013E-4,8.10586E-6,0E0,1.4243702E-5,4.3002146E-6,1.5303249E-5,2.748375E-5,2.2066172E-6,3.0650076E-6,3.1111267E-5,2.3496668E-6,2.3171833E-5,8.4730453E-4,1.1589659E-2,6.082969E-5,3.7162827E-5,2.2889974E-6,1.8005908E-4,1.6451942E-5,3.87806E-6,3.1695232E-5,5.3562303E-6,1.0809026E-4,2.3159168E-6,6.2306804E-6,8.88208E-6,5.8808528E-5,2.3012097E-5,5.3318054E-6,1.4147868E-6,2.52064E-5,4.9047617E-6,9.278714E-6,1.19164695E-4,0E0,0E0,1.2953963E-6,4.1751168E-4,5.3751086E-5,0E0,6.144467E-4,5.930522E-2,0E0,5.482358E-4,4.1355113E-5,2.6337812E-6,1.3128386E-4,3.391711E-6,2.6165853E-6,8.212283E-6,1.2877403E-4,0E0,1.535885E-5,1.6401082E-6,2.6053563E-6,2.2608263E-5,0E0,5.162243E-6,1.2616729E-6,5.9257785E-5,4.783153E-6,1.3335788E-5,1.2764658E-6,3.5961908E-5,0E0,3.411569E-5,8.652192E-6,1.9024135E-4,1.4976088E-6,1.0481491E-5,3.590592E-5,6.430683E-5,2.4947267E-6,1.4588322E-6,3.0262734E-6,3.4108616E-5,0E0,3.2439123E-6,3.0562587E-5,5.2528383E-5,5.3212025E-6,0E0,2.2625027E-5,2.423444E-6,0E0,1.6088356E-5,1.2149701E-3,2.7461647E-6,1.7868483E-6,0E0,5.793142E-4,0E0,0E0,4.4826207E-5,8.0292916E-4,8.250267E-5,6.5438685E-6,0E0,0E0,0E0,0E0,0E0,0E0,0E0,0E0,0E0,0E0,0E0,0E0,0E0,0E0,0E0,0E0,0E0,0E0,0E0,0E0,0E0,0E0,0E0,0E0,0E0,0E0,0E0,0E0,0E0,0E0,0E0,0E0,0E0,0E0,0E0,0E0,0E0,0E0,0E0,0E0,0E0,0E0,0E0,0E0,0E0,0E0,0E0,0E0,0E0,0E0,0E0,0E0,0E0,0E0,0E0,0E0,0E0,0E0,0E0,0E0,0E0,0E0,0E0,0E0,0E0,0E0,0E0,0E0,0E0,0E0,0E0,0E0,0E0,0E0,0E0,0E0,0E0,0E0,0E0,0E0,0E0,0E0,0E0,0E0,0E0,0E0],"parents":[2147483647,0,0,1,1,2,2,3,3,4,4,5,5,6,6,7,7,8,8,9,9,10,10,11,11,12,12,13,13,14,14,15,15,16,16,17,17,19,19,20,20,21,21,22,22,23,23,24,24,25,25,26,26,27,27,28,28,29,29,30,30,31,31,32,32,33,33,34,34,35,35,36,36,37,37,38,38,39,39,40,40,41,41,42,42,43,43,44,44,45,45,46,46,47,47,48,48,49,49,52,52,53,53,54,54,56,56,57,57,59,59,60,60,61,61,62,62,63,63,64,64,65,65,66,66,68,68,69,69,70,70,71,71,73,73,74,74,75,75,76,76,77,77,78,78,79,79,81,81,82,82,83,83,84,84,85,85,86,86,87,87,88,88,89,89,90,90,91,91,93,93,94,94,95,95,96,96,98,98,99,99,101,101,102,102,103,103,104,104,106,106,109,109,110,110,111,111,112,112],"right_children":[2,4,6,8,10,12,14,16,18,20,22,24,26,28,30,32,34,36,-1,38,40,42,44,46,48,50,52,54,56,58,60,62,64,66,68,70,72,74,76,78,80,82,84,86,88,90,92,94,96,98,-1,-1,100,102,104,-1,106,108,-1,110,112,114,116,118,120,122,124,-1,126,128,130,132,-1,134,136,138,140,142,144,146,-1,148,150,152,154,156,158,160,162,164,166,168,-1,170,172,174,176,-1,178,180,-1,182,184,186,188,-1,190,-1,-1,192,194,196,198,-1,-1,-1,-1,-1,-1,-1,-1,-1,-1,-1,-1,-1,-1,-1,-1,-1,-1,-1,-1,-1,-1,-1,-1,-1,-1,-1,-1,-1,-1,-1,-1,-1,-1,-1,-1,-1,-1,-1,-1,-1,-1,-1,-1,-1,-1,-1,-1,-1,-1,-1,-1,-1,-1,-1,-1,-1,-1,-1,-1,-1,-1,-1,-1,-1,-1,-1,-1,-1,-1,-1,-1,-1,-1,-1,-1,-1,-1,-1,-1,-1,-1,-1,-1,-1,-1],"split_conditions":[3.5884857E-1,7.29626E-1,7.9448783E-1,7.91526E-1,7.3004097E-1,7.94472E-1,7.299055E-1,7.913661E-1,7.294148E-1,7.9458314E-1,7.91269E-1,7.907439E-1,7.298424E-1,7.2988075E-1,7.299198E-1,7.911378E-1,7.9138386E-1,7.293885E-1,-2.0480838E-4,7.9135555E-1,3.587778E-1,7.3238766E-1,7.3141384E-1,7.31162E-1,7.341988E-1,7.917306E-1,7.912537E-1,7.9138386E-1,7.913476E-1,7.9136837E-1,7.3120034E-1,7.295971E-1,7.2480726E-1,7.9448783E-1,7.907439E-1,7.9170656E-1,7.917789E-1,7.2989506E-1,7.9138386E-1,7.9138386E-1,7.9114866E-1,7.3074967E-1,7.3241395E-1,7.310002E-1,7.3195416E-1,3.6343673E-1,7.3120034E-1,7.933069E-1,3.6091927E-1,7.913661E-1,2.325547E-5,-1.5111982E-4,7.91427E-1,7.913661E-1,7.917001E-1,-1.008573E-4,7.9136837E-1,7.9135555E-1,-1.3609827E-2,7.311451E-1,7.915144E-1,7.293885E-1,3.587778E-1,7.219894E-1,7.9132646E-1,7.9136837E-1,7.9136837E-1,2.9120976E-3,7.9152024E-1,3.5870442E-1,7.2800523E-1,7.9458314E-1,-1.20288736E-4,7.298239E-1,7.9448783E-1,7.297846E-1,7.914462E-1,7.9137415E-1,7.914828E-1,7.9114616E-1,-1.2432341E-5,7.307266E-1,7.910262E-1,3.586561E-1,7.9062897E-1,7.300988E-1,3.586561E-1,7.319337E-1,7.327909E-1,7.2029555E-1,7.2900087E-1,7.311815E-1,-1.4211801E-5,3.6346394E-1,7.3085266E-1,7.9170656E-1,7.946042E-1,-8.003199E-5,7.917001E-1,7.9135025E-1,9.7444965E-5,7.295971E-1,7.9136837E-1,7.9145384E-1,7.9172516E-1,-2.8942145E-2,7.2989506E-1,-1.2134836E-4,1.9869712E-1,7.30593E-1,7.913661E-1,7.913636E-1,7.345173E-1,2.5860732E-5,-1.2191339E-4,-2.4113384E-5,7.5160176E-3,-1.4333044E-4,5.9337995E-5,-7.3597716E-5,4.748301E-5,-1.8085799E-3,-6.185335E-5,5.297171E-4,3.65582E-3,3.874888E-6,7.901709E-4,-1.2843883E-4,-3.973594E-5,-1.5222919E-5,5.8595793E-5,-1.3238302E-4,5.5631814E-3,-1.05652376E-4,2.24974E-4,-2.0748872E-4,-4.505136E-4,-2.0871469E-4,-2.5923161E-3,-1.0847051E-3,-9.422806E-5,-1.138498E-4,-1.0783089E-3,3.71255E-5,-9.897568E-5,1.3861802E-5,3.830097E-3,-1.3494439E-4,-1.0338938E-3,5.0004036E-4,-4.939938E-5,1.1384335E-2,-1.3013836E-4,2.115333E-4,-1.9838524E-4,2.8062885E-4,-1.949571E-5,5.3487E-4,8.0228936E-5,-7.0451264E-5,-1.2540617E-3,-1.2411808E-5,-7.282401E-5,-2.7832005E-4,-3.089007E-5,-2.8908593E-4,6.754247E-7,4.1809915E-5,2.577602E-3,4.3590376E-6,-5.4737046E-7,1.0871842E-5,-3.249824E-4,2.0358488E-3,-3.3909313E-5,7.052946E-6,2.002404E-4,-2.6609472E-3,-4.4303053E-4,7.626741E-5,6.1606575E-4,-5.299814E-5,4.3666284E-4,-2.0225847E-2,-6.931043E-4,8.4153103E-4,5.409166E-4,-2.875512E-4,8.330293E-6,-7.180467E-5,-1.5308784E-2,-2.4876092E-4,2.5769422E-4,1.5759803E-3,-7.822765E-3,3.9195776E-5,1.4731773E-3,1.5228825E-4,-1.0689765E-4],"split_indices":[1,3,0,2,3,0,3,2,3,0,2,0,3,3,3,2,2,3,0,2,1,3,3,3,3,2,2,2,2,2,3,3,3,0,0,2,2,3,2,2,2,3,3,3,3,1,3,0,1,2,0,0,2,2,2,0,2,2,0,3,2,3,1,3,2,2,2,0,2,1,3,0,0,3,0,3,0,2,2,2,0,3,2,1,2,3,1,3,3,3,3,3,0,1,3,2,2,0,2,2,0,3,2,2,2,0,3,0,0,3,2,2,3,0,0,0,0,0,0,0,0,0,0,0,0,0,0,0,0,0,0,0,0,0,0,0,0,0,0,0,0,0,0,0,0,0,0,0,0,0,0,0,0,0,0,0,0,0,0,0,0,0,0,0,0,0,0,0,0,0,0,0,0,0,0,0,0,0,0,0,0,0,0,0,0,0,0,0,0,0,0,0,0,0,0,0,0,0,0],"split_type":[0,0,0,0,0,0,0,0,0,0,0,0,0,0,0,0,0,0,0,0,0,0,0,0,0,0,0,0,0,0,0,0,0,0,0,0,0,0,0,0,0,0,0,0,0,0,0,0,0,0,0,0,0,0,0,0,0,0,0,0,0,0,0,0,0,0,0,0,0,0,0,0,0,0,0,0,0,0,0,0,0,0,0,0,0,0,0,0,0,0,0,0,0,0,0,0,0,0,0,0,0,0,0,0,0,0,0,0,0,0,0,0,0,0,0,0,0,0,0,0,0,0,0,0,0,0,0,0,0,0,0,0,0,0,0,0,0,0,0,0,0,0,0,0,0,0,0,0,0,0,0,0,0,0,0,0,0,0,0,0,0,0,0,0,0,0,0,0,0,0,0,0,0,0,0,0,0,0,0,0,0,0,0,0,0,0,0,0,0,0,0,0,0,0,0,0,0,0,0],"sum_hessian":[1.166915E6,2.2772E4,1.144143E6,1.2491E4,1.0281E4,1.141179E6,2.964E3,5.84E3,6.651E3,1.314E3,8.967E3,1.140831E6,3.48E2,1.651E3,1.313E3,5.163E3,6.77E2,6.531E3,1.2E2,6.23E2,6.91E2,1.818E3,7.149E3,4.369E3,1.136462E6,2.07E2,1.41E2,1.629E3,2.2E1,1.1E1,1.302E3,2.965E3,2.198E3,9.3E1,5.84E2,6.52E3,1.1E1,3.53E2,2.7E2,6.25E2,6.6E1,1.777E3,4.1E1,3.325E3,3.824E3,3.881E3,4.88E2,1.087769E6,4.8693E4,1.14E2,9.3E1,2.8E1,1.13E2,7.29E2,9E2,1.2E1,1E1,7E0,4E0,7.4E2,5.62E2,2.953E3,1.2E1,5.03E2,1.695E3,2.9E1,6.4E1,1E0,5.83E2,8.39E2,5.681E3,2E0,9E0,2.25E2,1.28E2,4.6E1,2.24E2,3.51E2,2.74E2,1.6E1,5E1,1.106E3,6.71E2,6E0,3.5E1,2.278E3,1.047E3,7.77E2,3.047E3,3.737E3,1.44E2,2.1E1,4.67E2,1.086001E6,1.768E3,8.1E1,4.8612E4,8E1,3.4E1,3.3E1,8E1,7.1E2,1.9E1,1.54E2,7.46E2,1E0,9E0,6E0,1E0,7.04E2,3.6E1,1.64E2,3.98E2,2.828E3,1.25E2,1E1,2E0,1.03E2,4E2,1.493E3,2.02E2,2E0,2.7E1,1.9E1,4.5E1,5.58E2,2.5E1,3.91E2,4.48E2,5.155E3,5.26E2,1E0,1E0,1.59E2,6.6E1,1E2,2.8E1,1.6E1,3E1,4E0,2.2E2,3.37E2,1.4E1,1.34E2,1.4E2,1.4E1,2E0,1.063E3,4.3E1,2.9E1,6.42E2,1E0,5E0,1.4E1,2.1E1,1.22E2,2.156E3,2.19E2,8.28E2,7.29E2,4.8E1,1.036E3,2.011E3,2.3E1,3.714E3,6.6E1,7.8E1,1.3E1,8E0,1.57634E5,9.28367E5,1.435E3,3.33E2,1.4E1,6.7E1,4.847E4,1.42E2,2.8E1,6E0,1.8E1,1.5E1,6.36E2,7.4E1,3E0,1.6E1,5.2E1,1.02E2,2E1,7.26E2,5E0,4E0,3.87E2,3.17E2,1.5E1,2.1E1,9.6E1,6.8E1,2.31E2,1.67E2],"tree_param":{"num_deleted":"0","num_feature":"4","num_nodes":"199","size_leaf_vector":"1"}},{"base_weights":[1.2355845E-7,-5.385041E-7,4.0402424E-6,-4.2300107E-7,-5.330978E-5,-1.2317157E-6,1.0383487E-5,-5.220144E-6,1.7019059E-7,-6.774715E-5,1.6417351E-4,1.3584007E-5,-7.394158E-6,5.1162933E-5,8.327873E-6,-1.1628935E-6,-2.0927602E-5,1.7392726E-5,-2.7738224E-7,-9.064628E-5,3.3151537E-5,2.2595103E-3,1.5562533E-5,2.922256E-6,9.622923E-3,5.0157896E-6,-1.9392817E-5,1.4301146E-4,2.2581236E-5,-2.5957805E-4,8.559447E-6,-5.5330643E-6,7.0209107E-6,-2.9518156E-5,6.287913E-6,-6.364397E-6,4.427657E-5,1.425146E-5,-8.366154E-7,-7.298732E-5,-2.2280621E-4,7.287532E-4,-9.6875365E-6,5.323376E-3,-1.596519E-4,6.9294288E-6,-5.459322E-4,1.064244E-5,1.4418954E-1,2.2295328E-6,7.022015E-5,-3.3170194E-4,-1.7579016E-5,1.020015E-4,1.0657499E-3,1.5597825E-5,2.9916136E-4,-8.2410946E-7,-4.4138287E-4,7.396609E-5,7.917421E-6,5.3970634E-6,-1.7620205E-5,-8.145687E-6,2.322676E-5,-1.337941E-5,-5.755218E-5,3.3926588E-4,2.482342E-6,2.5536418E-5,-1.8703142E-5,7.928524E-5,2.5583202E-5,2.795124E-6,5.194464E-5,-5.761022E-6,4.7178597E-7,-7.918176E-5,6.2830973E-4,-3.2266966E-4,-9.65798E-5,-3.368968E-4,7.5901686E-3,-2.0666183E-5,3.0858562E-4,-1.443618E-4,1.0863295E-2,-4.9138707E-6,4.8226408E-5,-1.9143447E-3,7.339219E-4,-1.0153345E-5,1.2285919E-5,1.8459716E-4,-4.4963785E-5,-2.6652913E-5,-6.396815E-4,-3.243153E-5,-7.0272968E-6,-1.9436846E-4,1.6603801E-4,4.414332E-5,4.239177E-3,-1.6352361E-4,2.4163899E-5,2.2075751E-3,-2.389362E-5,-2.2458054E-4,2.2299119E-4,-1.6650525E-5,-6.204369E-4,3.644674E-5,3.4135763E-4,6.2810846E-6,3.3441844E-5,1.7004466E-5,-2.2825396E-5,-2.0399446E-5,8.0360565E-5,6.376247E-5,-1.2564181E-5,-1.3586887E-5,3.616437E-5,-3.2509866E-5,2.6527545E-5,2.500323E-4,-6.1128114E-5,-4.1256084E-5,2.0726619E-3,1.7478561E-4,-2.4297085E-6,1.8853258E-5,5.6038145E-4,-2.1355962E-5,1.7344136E-3,6.807949E-5,2.9978677E-4,2.29861E-5,2.484787E-4,6.8582165E-5,3.2715812E-7,1.7682061E-4,4.2296648E-5,-3.836283E-6,-1.6522445E-5,7.7938734E-5,-5.2076192E-8,5.44724E-6,-9.6000855E-5,2.7280985E-3,-2.744367E-4,-1.5223505E-4,-5.207378E-4,-1.605984E-4,-1.2823882E-3,6.3257816E-5,1.1321995E-2,1.6561425E-3,3.552203E-5,-1.340492E-6,-3.185748E-4,2.2812234E-3,1.6426413E-5,3.7867756E-4,-3.0795006E-2,-9.792361E-5,3.7632657E-3,2.4073704E-5,-2.414185E-5,1.4537858E-5,-1.1346341E-4,1.2758133E-4,7.722165E-4,-2.6965485E-4,1.7584221E-5,-1.3586647E-4,-9.182691E-4,-3.5345223E-5,4.45106E-5,7.9348265E-6,-3.4620898E-5,-3.9667974E-4,-1.463432E-4,1.2878141E-4,1.0396302E-3,5.4907217E-3,-9.4153824E-5,3.7946542E-5,-2.5877953E-4,1.8322326E-5,3.8282892E-3,5.597175E-3,-4.4707227E-5,-2.4318114E-4,-1.4388647E-3,4.164501E-4,-4.1352337E-7,-4.448622E-5,1.6361589E-3,9.285688E-6,-7.2196917E-6,9.1246075E-5,-1.6288559E-5],"categories":[],"categories_nodes":[],"categories_segments":[],"categories_sizes":[],"default_left":[0,0,0,0,0,0,0,0,0,0,0,0,0,0,0,0,0,0,0,0,0,0,0,0,0,0,0,0,0,0,0,0,0,0,0,0,0,0,0,0,0,0,0,0,0,0,0,0,0,0,0,0,0,0,0,0,0,0,0,0,0,0,0,0,0,0,0,0,0,0,0,0,0,0,0,0,0,0,0,0,0,0,0,0,0,0,0,0,0,0,0,0,0,0,0,0,0,0,0,0,0,0,0,0,0,0,0,0,0,0,0,0,0,0,0,0,0,0,0,0,0,0,0,0,0,0,0,0,0,0,0,0,0,0,0,0,0,0,0,0,0,0,0,0,0,0,0,0,0,0,0,0,0,0,0,0,0,0,0,0,0,0,0,0,0,0,0,0,0,0,0,0,0,0,0,0,0,0,0,0,0,0,0,0,0,0,0,0,0,0,0,0,0,0,0,0,0,0,0,0,0,0,0],"id":7,"left_children":[1,3,5,7,9,11,13,15,17,19,21,23,25,27,29,31,33,35,37,39,41,43,-1,45,47,49,51,53,55,57,59,61,63,65,67,69,71,73,75,77,79,81,83,85,-1,87,89,-1,-1,91,93,95,97,99,101,103,105,107,109,111,113,115,117,119,121,123,125,127,129,131,133,135,137,139,141,143,145,147,149,151,-1,153,155,-1,157,-1,-1,159,161,163,165,167,169,171,-1,173,175,177,179,181,183,-1,185,187,189,191,-1,-1,-1,-1,193,195,197,199,201,-1,-1,-1,-1,-1,-1,-1,-1,-1,-1,-1,-1,-1,-1,-1,-1,-1,-1,-1,-1,-1,-1,-1,-1,-1,-1,-1,-1,-1,-1,-1,-1,-1,-1,-1,-1,-1,-1,-1,-1,-1,-1,-1,-1,-1,-1,-1,-1,-1,-1,-1,-1,-1,-1,-1,-1,-1,-1,-1,-1,-1,-1,-1,-1,-1,-1,-1,-1,-1,-1,-1,-1,-1,-1,-1,-1,-1,-1,-1,-1,-1,-1,-1,-1,-1,-1,-1,-1],"loss_changes":[3.02592E-6,6.084168E-6,5.6425665E-6,2.8342663E-6,6.856075E-6,8.413217E-6,6.4193673E-6,6.985195E-6,6.8326844E-6,4.727962E-6,4.2313877E-5,2.7732558E-3,9.690539E-6,9.644334E-6,4.525573E-6,3.1154593E-6,5.260602E-6,1.4339987E-5,7.0196147E-6,3.8741946E-6,1.1300855E-5,6.755778E-5,0E0,5.9474332E-5,3.8803227E-2,5.812025E-6,1.8737419E-5,3.288906E-5,5.411182E-6,2.9633266E-6,3.0585074E-6,7.50232E-6,7.4534523E-6,7.736758E-6,6.8406166E-6,4.6923806E-6,6.8910813E-6,1.3827777E-5,5.360205E-6,6.444323E-6,2.439495E-6,1.6341818E-4,1.2573038E-6,1.2273152E-4,0E0,1.3129926E-5,3.446732E-4,0E0,0E0,3.8208623E-6,1.7279932E-5,1.7927183E-5,5.1555317E-6,1.5898298E-5,1.1976664E-4,4.20198E-6,4.2592805E-5,1.4022424E-6,2.803522E-6,7.090467E-6,3.0128695E-6,9.769433E-6,7.344812E-6,4.977975E-6,6.9827665E-6,8.287984E-6,6.887465E-6,4.0320818E-5,4.519153E-6,1.1874497E-5,4.0014493E-5,9.037851E-6,3.9700535E-6,3.987381E-6,8.985167E-6,3.6172419E-6,2.6674146E-5,2.0786629E-6,2.5391188E-5,3.600312E-6,0E0,3.1278225E-6,8.355116E-5,0E0,